<?xml version="1.0"?>
<opencv_storage>
<opencv_ml_svm>
  <format>3</format>
  <svmType>C_SVC</svmType>
  <kernel>
    <type>RBF</type>
    <gamma>0.10000000000000001</gamma></kernel>
  <C>1.</C>
  <term_criteria><iterations>1000</iterations></term_criteria>
  <var_count>42</var_count>
  <class_count>24</class_count>
  <class_labels type_id="opencv-matrix">
    <rows>24</rows>
    <cols>1</cols>
    <dt>i</dt>
    <data>
      0 1 2 3 4 5 6 7 8 9 10 11 12 13 14 15 16 17 18 19 20 21 22 23</data></class_labels>
  <sv_total>5651</sv_total>
  <support_vectors>
    <_>
      0. 0. 0.350940764 0.00842265785 0.663686275 -0.371846706
      0.786238372 -0.747254312 0.886324883 -0.961891711 0.534094095
      -0.712822437 0.57010901 -0.986010373 0.495543867 -0.708943605
      0.472235978 -0.56326884 0.30006811 -0.749692857 0.290704489 -1.
      0.24313654 -0.629418433 0.25206387 -0.534997284 0.0669472367
      -0.749027669 0.0451699533 -0.938375831 0.0385559127 -0.586781323
      0.0648925528 -0.491015881 -0.168194056 -0.726459622 -0.178238481
      -0.864995241 -0.157468557 -0.622176528 -0.126560405 -0.548409998</_>
    <_>
      0. 0. 0.332675219 -0.13268213 0.532168925 -0.470363796 0.549829185
      -0.762404561 0.54007411 -1. 0.301018864 -0.749723077 0.286948532
      -0.890169919 0.243960977 -0.613628864 0.226426631 -0.3955127
      0.0932648778 -0.749647558 0.0775628313 -0.876387894 0.0824363306
      -0.548882723 0.0983423963 -0.322176218 -0.10364601 -0.703646779
      -0.126761615 -0.828635156 -0.0836136192 -0.516570866 -0.0454944894
      -0.30342415 -0.295469582 -0.622520745 -0.317282736 -0.766796231
      -0.251827419 -0.55613333 -0.19961296 -0.393246412</_>
    <_>
      0. 0. 0.330336571 -0.138861671 0.528788209 -0.472405076
      0.537100911 -0.760641634 0.52383405 -1. 0.292905301 -0.751496553
      0.273264915 -0.894324064 0.232601091 -0.622102559 0.215723664
      -0.40646565 0.0837906674 -0.754668176 0.0596461147 -0.875996649
      0.0693980157 -0.547647059 0.0898648649 -0.323183298 -0.115275525
      -0.711462677 -0.142421141 -0.825300038 -0.0952370986 -0.503966331
      -0.0487047397 -0.291699469 -0.312093556 -0.630525649 -0.326123297
      -0.770864606 -0.253737539 -0.553089559 -0.192954034 -0.38886568</_>
    <_>
      0. 0. 0.313401252 -0.126971424 0.518657207 -0.458355069 0.53055197
      -0.753777087 0.499358505 -1. 0.278061569 -0.746654153 0.282904953
      -0.903121352 0.240941703 -0.628097117 0.223290116 -0.407185197
      0.0696098581 -0.744826019 0.0669188797 -0.872358561 0.0670813397
      -0.531211197 0.077857472 -0.307010323 -0.127636313 -0.702110887
      -0.139219671 -0.810013413 -0.0983664915 -0.484176934 -0.0603583045
      -0.279651433 -0.323964089 -0.623744845 -0.339583784 -0.761270165
      -0.265441805 -0.542566419 -0.202925444 -0.384360701</_>
    <_>
      0. 0. 0.306069165 -0.142135441 0.515311122 -0.470290363
      0.534228384 -0.756695092 0.472612232 -1. 0.258922517 -0.785482645
      0.271859586 -0.92267406 0.239575058 -0.649413586 0.226741046
      -0.430417538 0.0550445989 -0.778584957 0.0486915372 -0.880221248
      0.0660470203 -0.542932808 0.0902648419 -0.318948418 -0.142619953
      -0.724897742 -0.146736801 -0.803329289 -0.0924380273 -0.476504028
      -0.0440128744 -0.270899415 -0.339461774 -0.631700516 -0.339732826
      -0.743647754 -0.251649708 -0.52385211 -0.180317551 -0.366084158</_>
    <_>
      0. 0. 0.312985331 -0.14301832 0.524195135 -0.46920678 0.550496936
      -0.758676052 0.499846488 -1. 0.291043729 -0.767347753 0.315335691
      -0.92248106 0.275438964 -0.65657872 0.253957957 -0.440878719
      0.0886343569 -0.770058572 0.0879618973 -0.886008441 0.0916500837
      -0.547195315 0.105342716 -0.31549865 -0.113604069 -0.724158823
      -0.111552507 -0.808005154 -0.0675935522 -0.478946328 -0.029422706
      -0.268902093 -0.318093508 -0.639383614 -0.304855138 -0.744822145
      -0.224678278 -0.524383605 -0.163729116 -0.368676156</_>
    <_>
      0. 0. 0.314213365 -0.138901949 0.529886305 -0.46648851 0.557837486
      -0.756818891 0.503767312 -1. 0.304864079 -0.763191938 0.322610945
      -0.929715693 0.282952428 -0.661450744 0.26368013 -0.445043474
      0.100673109 -0.76704061 0.0939312279 -0.894550204 0.0975195393
      -0.550303996 0.111874551 -0.317580432 -0.104073115 -0.723856032
      -0.109986313 -0.817481756 -0.0656680912 -0.481707126 -0.0268654171
      -0.270046562 -0.311914682 -0.642237008 -0.305220068 -0.753677011
      -0.227358207 -0.528578043 -0.167712852 -0.371426731</_>
    <_>
      0. 0. 0.314590305 -0.141872168 0.530740261 -0.469082326 0.55743742
      -0.756272078 0.501391113 -1. 0.300586194 -0.771147728 0.321796834
      -0.931590915 0.280684203 -0.664078534 0.264200032 -0.442473918
      0.0969982743 -0.773746192 0.0923602432 -0.891509712 0.0944472402
      -0.549888372 0.109778576 -0.316268206 -0.10757079 -0.729078054
      -0.107909486 -0.813750148 -0.0687448233 -0.478469461 -0.0323793963
      -0.263985068 -0.315647662 -0.64626056 -0.305318356 -0.758099616
      -0.230535671 -0.533908367 -0.172905982 -0.372908443</_>
    <_>
      0. 0. 0.313076973 -0.142547235 0.528503418 -0.468422234
      0.556165993 -0.756585836 0.502434611 -1. 0.298452914 -0.765211165
      0.320515633 -0.937363327 0.283735931 -0.67290318 0.268526375
      -0.454126269 0.0972359255 -0.763990641 0.0943131447 -0.901220918
      0.0998882204 -0.55993408 0.115277342 -0.32609722 -0.105909027
      -0.718423843 -0.105175525 -0.820802569 -0.0612560995 -0.48540926
      -0.0243993253 -0.269865453 -0.314397931 -0.635712028 -0.3034648
      -0.760890186 -0.225629643 -0.537878513 -0.168117195 -0.376085758</_>
    <_>
      0. 0. 0.306629837 -0.145684659 0.511839271 -0.474414259
      0.533782721 -0.761529028 0.478056997 -1. 0.277364045 -0.764927149
      0.295637757 -0.919438303 0.260196686 -0.658388555 0.249479324
      -0.448100269 0.0809376091 -0.760800779 0.073977001 -0.879731178
      0.0830718279 -0.548621535 0.105558723 -0.325718313 -0.11480771
      -0.710125089 -0.117513485 -0.800011754 -0.0701197162 -0.476124108
      -0.0262869783 -0.271351963 -0.312928855 -0.62209934 -0.309581667
      -0.735165775 -0.228237644 -0.521349251 -0.163542271 -0.370035112</_>
    <_>
      0. 0. 0.304263204 -0.139796972 0.514364958 -0.469490796
      0.537926197 -0.759813368 0.478039622 -1. 0.284962147 -0.76039499
      0.301808327 -0.917110622 0.26430279 -0.652392626 0.249697715
      -0.440515846 0.0870194286 -0.757401645 0.080343172 -0.879854918
      0.0887599885 -0.548406065 0.110654444 -0.327354491 -0.111255698
      -0.707978547 -0.112094149 -0.79381752 -0.0647029206 -0.466586828
      -0.0193570983 -0.263973743 -0.31195423 -0.620567024 -0.302987069
      -0.720400095 -0.219542205 -0.496742398 -0.152483091 -0.343959659</_>
    <_>
      0. 0. 0.309020102 -0.139492616 0.518727601 -0.472419977
      0.543943584 -0.762506366 0.488249809 -1. 0.288565099 -0.759148002
      0.312666953 -0.92851615 0.27663967 -0.666189194 0.26293388
      -0.44828403 0.0897696018 -0.756074548 0.0911692753 -0.880990386
      0.100935511 -0.550717235 0.122116141 -0.324191034 -0.106298245
      -0.707155406 -0.102072038 -0.798071384 -0.0539282188 -0.472376138
      -0.0104000233 -0.265450954 -0.302236646 -0.623393774 -0.290197462
      -0.724212408 -0.209351867 -0.501735985 -0.145286098 -0.347161174</_>
    <_>
      0. 0. 0.305917174 -0.138100624 0.518107891 -0.471527219
      0.544601917 -0.762090325 0.483755767 -1. 0.288436353 -0.763823688
      0.31123203 -0.932524681 0.274353057 -0.669249713 0.260780364
      -0.44884339 0.0869537741 -0.758177757 0.088268511 -0.881548584
      0.0981140435 -0.548940778 0.119713753 -0.320917368 -0.112150148
      -0.707270265 -0.105814613 -0.793274641 -0.0595371388 -0.465744108
      -0.0179904737 -0.258552134 -0.311102837 -0.621297538 -0.294873893
      -0.720893145 -0.213513017 -0.495699346 -0.150347099 -0.338621616</_>
    <_>
      0. 0. 0.303926706 -0.144965693 0.511716902 -0.476622581
      0.536317706 -0.766153395 0.48376444 -1. 0.282735467 -0.760787427
      0.294899821 -0.927108467 0.258070469 -0.665230632 0.243957102
      -0.448320657 0.0840441212 -0.755501807 0.0719234124 -0.883332431
      0.0835046843 -0.550631642 0.107474223 -0.326833695 -0.110322386
      -0.702989459 -0.118871771 -0.797746718 -0.068044737 -0.476427794
      -0.0217647832 -0.276660472 -0.304667294 -0.613186836 -0.306035787
      -0.729398072 -0.226896241 -0.515797734 -0.162815019 -0.367628515</_>
    <_>
      0. 0. 0.306135535 -0.138366446 0.525987923 -0.472645134
      0.556423962 -0.764467239 0.489315689 -1. 0.289604366 -0.77048409
      0.31009981 -0.933379292 0.267470717 -0.666763961 0.250155061
      -0.447810143 0.0882852972 -0.763328671 0.0814765841 -0.882502913
      0.0876347199 -0.546448588 0.110120997 -0.323928714 -0.109844871
      -0.711281419 -0.111747332 -0.796821892 -0.0660237074 -0.468406796
      -0.0206810478 -0.265251458 -0.306729943 -0.624246776 -0.30366835
      -0.727791548 -0.223239452 -0.502666712 -0.15639022 -0.346843362</_>
    <_>
      0. 0. 0.3097049 -0.137025282 0.534124017 -0.470116615 0.566598237
      -0.763094664 0.496363014 -1. 0.29968673 -0.777513146 0.320386499
      -0.94552809 0.277425885 -0.674751699 0.258965403 -0.449178249
      0.0936464071 -0.769587278 0.0882861316 -0.893193185 0.0950437635
      -0.550590754 0.117833488 -0.322471678 -0.10899695 -0.715547204
      -0.110332653 -0.804333925 -0.0631840751 -0.47151643 -0.0175037216
      -0.264534444 -0.309798717 -0.625599742 -0.305565953 -0.73019594
      -0.224483192 -0.501307905 -0.157859638 -0.342884302</_>
    <_>
      0. 0. 0.308540821 -0.137260541 0.529022694 -0.471110493
      0.559541762 -0.764762104 0.49126932 -1. 0.299649626 -0.76806134
      0.312980622 -0.935695589 0.269657969 -0.663416207 0.251881808
      -0.441656321 0.0951549634 -0.762566328 0.0818684921 -0.884596407
      0.0890828446 -0.542553961 0.113234095 -0.317904413 -0.104823843
      -0.710112572 -0.115038805 -0.800510228 -0.0661054775 -0.470076829
      -0.0182567798 -0.267388731 -0.303254634 -0.622082412 -0.303569108
      -0.727537751 -0.222955108 -0.501333654 -0.155499741 -0.346964896</_>
    <_>
      0. 0. 0.306893677 -0.137123883 0.531222641 -0.470850289
      0.564366817 -0.76224941 0.495877713 -1. 0.298586905 -0.781433225
      0.322081566 -0.942722082 0.276098967 -0.671189725 0.255013406
      -0.445948184 0.0923819095 -0.775444329 0.0918112025 -0.890286326
      0.095303379 -0.548418641 0.114553094 -0.320334405 -0.110920578
      -0.72256583 -0.106690347 -0.803207636 -0.0625613704 -0.470319003
      -0.0197253861 -0.261894375 -0.312375247 -0.633801997 -0.301408648
      -0.729615748 -0.220667556 -0.499919444 -0.15562056 -0.340553403</_>
    <_>
      0. 0. 0.306665629 -0.139409602 0.530216336 -0.467896283
      0.556934118 -0.763568223 0.49435994 -1. 0.305286348 -0.764237225
      0.318327487 -0.939755857 0.266465962 -0.672051609 0.240800902
      -0.441528618 0.0950310901 -0.753337264 0.0841203704 -0.895648122
      0.0817390457 -0.562684059 0.0949595645 -0.328343034 -0.106482789
      -0.700856984 -0.114187337 -0.79618001 -0.0779443383 -0.479351252
      -0.0447727852 -0.2776362 -0.305972636 -0.616753817 -0.308657229
      -0.747950137 -0.240105808 -0.531383753 -0.187430456 -0.372462451</_>
    <_>
      0. 0. -0.334134847 -0.109825037 -0.576758385 -0.445428669
      -0.603491366 -0.763238549 -0.568983376 -1. -0.376582086
      -0.721231461 -0.396790922 -0.942204595 -0.327915251 -0.670563459
      -0.269910544 -0.428141415 -0.14829655 -0.742427349 -0.15879631
      -0.947414041 -0.107303746 -0.597857893 -0.076051034 -0.34013775
      0.0656175688 -0.722250283 0.0559468269 -0.922147274 0.0616867356
      -0.574170053 0.0511461757 -0.325490415 0.280124336 -0.663568079
      0.256786048 -0.870674253 0.231066525 -0.6553756 0.204188004
      -0.470476955</_>
    <_>
      0. 0. -0.330780506 -0.0778346732 -0.559220612 -0.417843819
      -0.586119175 -0.733161688 -0.568477511 -1. -0.392714024
      -0.678168952 -0.344593704 -0.906734586 -0.276056647 -0.643211842
      -0.223892391 -0.412388712 -0.182234749 -0.715233982 -0.15219821
      -0.936184943 -0.109986305 -0.620548546 -0.0769383386 -0.362542272
      -0.0117179332 -0.702818811 0.00287895091 -0.914453149 0.0129413521
      -0.593014419 0.0231817048 -0.345771492 0.15196088 -0.661966145
      0.127468616 -0.813725173 0.128027722 -0.635455549 0.132708043
      -0.490708113</_>
    <_>
      0. 0. 0.322153509 -0.134308323 0.545303702 -0.457407713
      0.593745112 -0.753274322 0.619256735 -1. 0.389834225 -0.706490576
      0.414472014 -0.931760013 0.355200827 -0.672690809 0.329909652
      -0.466274142 0.192375481 -0.714503348 0.196734592 -0.876484811
      0.158115476 -0.536762357 0.145049021 -0.32666108 -0.00358349038
      -0.680152178 6.79555251e-06 -0.801025748 0.0098563442 -0.475668192
      0.0231852159 -0.293465376 -0.20667021 -0.613177717 -0.178512096
      -0.741360843 -0.13228935 -0.524754643 -0.104055874 -0.388574451</_>
    <_>
      0. 0. 0.309039116 -0.138388664 0.5272277 -0.456453383 0.570046723
      -0.752966762 0.568784237 -1. 0.35188064 -0.714939713 0.374392927
      -0.937207997 0.315005183 -0.679500639 0.289938986 -0.466789335
      0.1525058 -0.71160078 0.15722166 -0.88401705 0.124876149
      -0.54289633 0.116456755 -0.328555942 -0.0399828441 -0.668878019
      -0.0339132994 -0.792651713 -0.0201357398 -0.470532924
      -0.0068764207 -0.287906826 -0.234770626 -0.593880594 -0.214234471
      -0.740039766 -0.17125918 -0.532195032 -0.147188336 -0.39442423</_>
    <_>
      0. 0. 0.316233754 -0.113473915 0.524586797 -0.41957882 0.584646761
      -0.713883281 0.671047211 -0.937363625 0.408495188 -0.758942008
      0.384340674 -0.977730513 0.327655703 -0.710387588 0.305090159
      -0.543908596 0.201301053 -0.769336581 0.159466535 -1. 0.141777962
      -0.656241179 0.165527374 -0.500004232 0.0118486825 -0.729850888
      -0.0546806827 -0.937742949 -0.0207534097 -0.621618748 0.0453829728
      -0.472649068 -0.166899651 -0.652507603 -0.199014366 -0.806135595
      -0.149887085 -0.596229374 -0.0838448927 -0.48095271</_>
    <_>
      0. 0. 0.318823397 -0.114585526 0.531292081 -0.418072701
      0.589663565 -0.711554706 0.668249786 -0.942099094 0.408999026
      -0.767294526 0.385781646 -0.984384477 0.333133787 -0.716976464
      0.315582603 -0.551136374 0.201956347 -0.774578691 0.16126737 -1.
      0.146965533 -0.650714517 0.173623621 -0.500174165 0.0116060032
      -0.732873976 -0.0510591567 -0.93877244 -0.014409787 -0.619732738
      0.0530763008 -0.476078779 -0.168609634 -0.654339015 -0.194818646
      -0.808656931 -0.143844992 -0.597833991 -0.0780465975 -0.487250537</_>
    <_>
      0. 0. 0.321170121 -0.114234217 0.531865597 -0.426568449
      0.584733069 -0.721598327 0.630291164 -0.95481348 0.391467094
      -0.76165396 0.382733464 -0.976359189 0.339248002 -0.714318931
      0.317999393 -0.535820425 0.185574353 -0.762896299 0.161333084 -1.
      0.149725944 -0.666151941 0.164606959 -0.501861393 -0.00531533826
      -0.71827054 -0.0486683361 -0.944334924 -0.00811477657 -0.634817064
      0.0467735454 -0.471367031 -0.1869587 -0.63659972 -0.199217781
      -0.795259058 -0.141030967 -0.589946568 -0.0840058848 -0.470292747</_>
    <_>
      0. 0. 0.32207796 -0.108360842 0.530329704 -0.4214679 0.575091839
      -0.719944417 0.611824512 -0.957030296 0.387096703 -0.761278927
      0.374874234 -0.975016654 0.328292519 -0.710225344 0.304618537
      -0.530945837 0.181510299 -0.763538182 0.154783472 -1. 0.140664145
      -0.662475824 0.154316232 -0.502852559 -0.00844870415 -0.720882952
      -0.0537126064 -0.947299302 -0.01567843 -0.634436071 0.0390322916
      -0.471293122 -0.189024001 -0.641503036 -0.204094872 -0.799064279
      -0.148088083 -0.59148246 -0.0902627334 -0.472191572</_>
    <_>
      0. 0. 0.313964903 -0.108574629 0.52048111 -0.418143332 0.558968723
      -0.723591685 0.557449818 -0.966993153 0.361419439 -0.7439816
      0.352404684 -0.980878532 0.307894766 -0.698264182 0.29161194
      -0.500239015 0.160272345 -0.751477659 0.131227598 -1. 0.120873377
      -0.652441323 0.135236502 -0.484986573 -0.0237161256 -0.716794372
      -0.0699082091 -0.942902625 -0.0287922658 -0.620417058 0.0190311298
      -0.46190545 -0.204093754 -0.644128084 -0.221399307 -0.815262973
      -0.167543679 -0.604409099 -0.118746035 -0.484266132</_>
    <_>
      0. 0. 0.311510831 -0.101931944 0.523808539 -0.416204631
      0.561501443 -0.722557962 0.556628644 -0.968086779 0.365503371
      -0.749079764 0.359504968 -0.981001854 0.308504075 -0.700190604
      0.289760828 -0.49499619 0.163871124 -0.756742358 0.136902526 -1.
      0.120925508 -0.654744446 0.135086775 -0.478134006 -0.021341987
      -0.723695755 -0.0660672113 -0.943077564 -0.031356331 -0.61882025
      0.0161820985 -0.450701445 -0.203746036 -0.653647363 -0.221844733
      -0.81988728 -0.172321856 -0.604878247 -0.122736052 -0.478371561</_>
    <_>
      0. 0. 0.314997345 -0.105299994 0.527525902 -0.416563153
      0.570318699 -0.720789254 0.568334162 -0.965519905 0.367589116
      -0.74653548 0.356299251 -0.983252227 0.307646632 -0.701926529
      0.291982412 -0.502233505 0.167288736 -0.754360914 0.135969549 -1.
      0.120810546 -0.65169096 0.136257216 -0.478802025 -0.0178696066
      -0.722120702 -0.0641656369 -0.950418472 -0.0284457412 -0.626815081
      0.0196765419 -0.461017072 -0.200367957 -0.653208852 -0.219116077
      -0.822624922 -0.169282436 -0.607680798 -0.12024197 -0.480819762</_>
    <_>
      0. 0. -0.328400165 -0.090082787 -0.555199146 -0.426157832
      -0.575491905 -0.734704077 -0.534724116 -1. -0.376142561
      -0.686634243 -0.321343482 -0.895083845 -0.253502101 -0.63067925
      -0.198373795 -0.404213905 -0.166036934 -0.721277893 -0.133263052
      -0.925785661 -0.0945819765 -0.61223942 -0.0626691729 -0.360270917
      0.00215721526 -0.703485191 0.0170351546 -0.907482028 0.0234251041
      -0.593791306 0.0328432918 -0.352213353 0.160881832 -0.657021046
      0.135257453 -0.799468219 0.135064095 -0.628749967 0.141950697
      -0.491551369</_>
    <_>
      0. 0. 0.315683603 -0.120566495 0.523871064 -0.426780373
      0.569756806 -0.723070085 0.58313942 -0.961790979 0.352723926
      -0.76139611 0.32626307 -0.988825083 0.27646789 -0.704102814
      0.265532404 -0.509830177 0.144969106 -0.762531102 0.101705238 -1.
      0.0956366584 -0.651441813 0.121604614 -0.483722359 -0.0408222936
      -0.719408631 -0.109428585 -0.931854069 -0.0575206839 -0.607795537
      0.0135966456 -0.451467901 -0.220050246 -0.639514804 -0.26634866
      -0.797437787 -0.203865752 -0.581453323 -0.131404191 -0.46222797</_>
    <_>
      0. 0. 0.317976117 -0.12376079 0.532713473 -0.429395497 0.584097266
      -0.724677563 0.587308466 -0.961813986 0.345610291 -0.759918392
      0.317396522 -0.988886416 0.272259533 -0.711770415 0.260422856
      -0.524460375 0.142307907 -0.757713139 0.103080407 -1. 0.101744778
      -0.653177083 0.123072892 -0.491381824 -0.0387432948 -0.714236021
      -0.100148469 -0.929151058 -0.0451522805 -0.609291732 0.017606074
      -0.459178716 -0.211017057 -0.633420646 -0.251307428 -0.800574481
      -0.186281323 -0.593925297 -0.121019021 -0.478463799</_>
    <_>
      0. 0. 0.310031891 -0.119346656 0.518952787 -0.426887602
      0.566900194 -0.7192536 0.582663536 -0.954636276 0.351646364
      -0.755013645 0.324232131 -0.983703554 0.272318959 -0.704111576
      0.260083258 -0.509429991 0.149717614 -0.758044839 0.111937322 -1.
      0.104516976 -0.663126707 0.128334761 -0.49086529 -0.0302342083
      -0.718424439 -0.0926553309 -0.928561151 -0.0440874286 -0.612332046
      0.0226722881 -0.454664767 -0.205617025 -0.642754793 -0.245194778
      -0.804066539 -0.185079738 -0.594558716 -0.115234472 -0.473921359</_>
    <_>
      0. 0. 0.311513007 -0.127829269 0.506042361 -0.437181264
      0.546682596 -0.724299967 0.573964715 -0.954021215 0.350597709
      -0.764432192 0.324627995 -0.981787682 0.27417928 -0.701420367
      0.262764156 -0.506126523 0.142292723 -0.763873458 0.112747841 -1.
      0.106079176 -0.663592458 0.12898761 -0.486388981 -0.0415070727
      -0.716266632 -0.102331996 -0.925375164 -0.0484577604 -0.610179663
      0.0237348489 -0.446591944 -0.215761185 -0.631409943 -0.251828641
      -0.780219138 -0.182913601 -0.572239339 -0.106895618 -0.454364955</_>
    <_>
      0. 0. 0.312968373 -0.128217116 0.499394983 -0.440339029
      0.531549513 -0.739782631 0.561482966 -0.97144872 0.345517844
      -0.767487168 0.333041877 -0.987767577 0.292048395 -0.720732868
      0.272339225 -0.538195312 0.139976472 -0.765028238 0.120035768 -1.
      0.122372307 -0.665953219 0.137985095 -0.500994802 -0.044523064
      -0.714792252 -0.0992370844 -0.933266163 -0.0415947922 -0.625712216
      0.0177276004 -0.465170741 -0.220309392 -0.628416359 -0.252610058
      -0.78210938 -0.178203031 -0.57926178 -0.110113427 -0.462983072</_>
    <_>
      0. 0. 0.312840223 -0.13523829 0.498871148 -0.442824811 0.531772971
      -0.740187883 0.561019003 -0.971972525 0.347088307 -0.768081903
      0.334825724 -0.988734841 0.289808929 -0.721269608 0.269873768
      -0.538091242 0.141768858 -0.764511585 0.122169644 -1. 0.118626006
      -0.664461672 0.133635074 -0.49901107 -0.0432978496 -0.71457231
      -0.0971360803 -0.937180817 -0.0448172465 -0.629256487 0.0132952966
      -0.466753721 -0.220505923 -0.629137337 -0.25298354 -0.784844279
      -0.181145102 -0.582880139 -0.114324316 -0.464935809</_>
    <_>
      0. 0. 0.310353488 -0.132390261 0.494609088 -0.445931762 0.52565366
      -0.74409318 0.554509401 -0.975177109 0.343400121 -0.768368125
      0.328264505 -0.990414917 0.282710731 -0.719200611 0.263433486
      -0.537367582 0.141011432 -0.765570819 0.119388528 -1. 0.114591822
      -0.662410021 0.129289284 -0.494617522 -0.0408182628 -0.715222657
      -0.0968923643 -0.939142466 -0.0463492684 -0.629674315 0.0117941452
      -0.466398358 -0.214323133 -0.628951013 -0.248705104 -0.783325613
      -0.178539306 -0.580140293 -0.111827865 -0.462280869</_>
    <_>
      0. 0. 0.314104974 -0.128129974 0.503069699 -0.44230637 0.533334255
      -0.742215037 0.560005307 -0.974184871 0.351639599 -0.766268134
      0.335802466 -0.991296828 0.289705873 -0.718842745 0.270688534
      -0.537159801 0.147412196 -0.765424371 0.1256295 -1. 0.120336354
      -0.65971154 0.133795664 -0.492787927 -0.0381316729 -0.717233777
      -0.0908995569 -0.93887943 -0.0424301028 -0.627931833 0.0126411729
      -0.466295987 -0.216194466 -0.633453429 -0.246703878 -0.788387179
      -0.179884195 -0.583695471 -0.117512874 -0.465777397</_>
    <_>
      0. 0. 0.313750744 -0.1309001 0.499705344 -0.440899014 0.530779421
      -0.737801671 0.567124367 -0.970965981 0.354494035 -0.76722908
      0.340043366 -0.99140197 0.288364768 -0.719658494 0.266866148
      -0.5324862 0.148844481 -0.766888499 0.127343252 -1. 0.116993099
      -0.658632755 0.128188372 -0.487117648 -0.0365218557 -0.717781901
      -0.0928416997 -0.938567638 -0.043099381 -0.624073863 0.0150421485
      -0.456893384 -0.214336336 -0.631429017 -0.247184157 -0.775225818
      -0.174518138 -0.568434 -0.106005907 -0.449644625</_>
    <_>
      0. 0. 0.315384001 -0.134973198 0.50499928 -0.436300308 0.541852891
      -0.732521296 0.571612656 -0.960171759 0.351557344 -0.759416223
      0.335347533 -0.98453027 0.285863847 -0.710475802 0.26659739
      -0.525169373 0.149366215 -0.762173891 0.123637669 -1. 0.111828186
      -0.652102053 0.124947451 -0.480685472 -0.0318905786 -0.717526853
      -0.0918384343 -0.94951731 -0.0451938696 -0.633415341 0.0128476806
      -0.462732196 -0.205940723 -0.634550631 -0.243207723 -0.79115814
      -0.173300788 -0.587745965 -0.104308538 -0.465516001</_>
    <_>
      0. 0. 0.322791517 -0.123048216 0.517472267 -0.426839113
      0.544328332 -0.727909803 0.551212132 -0.966076136 0.354670823
      -0.749878347 0.339052379 -0.984156132 0.290377378 -0.707039773
      0.26953584 -0.526438475 0.158116788 -0.752928734 0.130633488 -1.
      0.118926011 -0.648724079 0.130531341 -0.479286581 -0.0228518732
      -0.708055496 -0.0765263066 -0.940856278 -0.0348613597 -0.620951951
      0.0175381172 -0.456632048 -0.198359966 -0.6276564 -0.223920673
      -0.774140298 -0.162634909 -0.562394738 -0.105474353 -0.442814052</_>
    <_>
      0. 0. 0.322179228 -0.119723119 0.509735584 -0.434645623
      0.527921379 -0.738648772 0.543339252 -0.977346539 0.349320948
      -0.753294885 0.331978112 -0.988036156 0.283467114 -0.708418369
      0.264140099 -0.528968453 0.15305385 -0.754711866 0.12624009 -1.
      0.114663273 -0.649726748 0.127637327 -0.483689547 -0.0268432945
      -0.709058464 -0.0816441253 -0.941303313 -0.0384986587 -0.620643914
      0.0173260588 -0.45709908 -0.200362369 -0.629359007 -0.230723515
      -0.774380624 -0.168140799 -0.56109339 -0.107083037 -0.442572057</_>
    <_>
      0. 0. 0.318556488 -0.122630894 0.511382937 -0.428620249 0.5396384
      -0.729596257 0.556178033 -0.969280362 0.356770337 -0.756254375
      0.334547549 -0.993778646 0.287880123 -0.712408006 0.275330544
      -0.536559522 0.161042437 -0.755391002 0.127548635 -1. 0.118774414
      -0.646960735 0.138872087 -0.492854267 -0.0192390997 -0.709278107
      -0.0784602836 -0.938669264 -0.0360171013 -0.618755341 0.0236634295
      -0.466978401 -0.193582967 -0.630967438 -0.227428868 -0.781805933
      -0.167403266 -0.569494843 -0.105520636 -0.454834998</_>
    <_>
      0. 0. 0.320935071 -0.129045814 0.51114285 -0.431827128 0.538520575
      -0.731112242 0.553413212 -0.970434725 0.354492605 -0.75304991
      0.331915975 -0.99241811 0.287899941 -0.708554804 0.274910033
      -0.529340208 0.156423554 -0.751741648 0.124782301 -1. 0.117574364
      -0.644051433 0.135222062 -0.487847149 -0.0247733314 -0.704300225
      -0.0812788606 -0.937448859 -0.0374668799 -0.616593599 0.0187311471
      -0.464163303 -0.199238345 -0.622862756 -0.229593903 -0.779428184
      -0.169128612 -0.56845659 -0.112040736 -0.452605516</_>
    <_>
      0. 0. 0.3208085 -0.124838307 0.510280192 -0.433293968 0.534393728
      -0.735212862 0.553491592 -0.975212932 0.356537163 -0.757280111
      0.332165509 -0.995252907 0.28912425 -0.711279094 0.279423475
      -0.534615934 0.158948824 -0.755632997 0.1234731 -1. 0.118455343
      -0.644932806 0.139637798 -0.490891039 -0.0219320748 -0.708011627
      -0.082604818 -0.937390983 -0.0367883779 -0.61503309 0.0232243389
      -0.463745594 -0.196711421 -0.627676487 -0.23073864 -0.780956686
      -0.169603065 -0.567881942 -0.109031044 -0.453139514</_>
    <_>
      0. 0. 0.323256284 -0.123032652 0.512505233 -0.432115257
      0.533413053 -0.73482275 0.549973905 -0.975391805 0.355527192
      -0.754401028 0.339618802 -0.991554618 0.292051882 -0.709359109
      0.273998022 -0.533182204 0.160765767 -0.755348265 0.135265827 -1.
      0.123729579 -0.64520371 0.137843162 -0.483808547 -0.0196817536
      -0.710042357 -0.0729947537 -0.944949925 -0.0320231728 -0.622236133
      0.0223985855 -0.460886568 -0.194721296 -0.631830394 -0.22315447
      -0.776790023 -0.162337989 -0.562456667 -0.103257075 -0.445045561</_>
    <_>
      0. 0. 0.323949486 -0.129106238 0.515116632 -0.4413912 0.536984682
      -0.744557142 0.544724524 -0.992420852 0.353700101 -0.763663054
      0.330452055 -0.998192191 0.28594771 -0.715624928 0.274345219
      -0.544043481 0.155495033 -0.757665515 0.113850959 -1. 0.108356863
      -0.639802694 0.135863498 -0.480443954 -0.0257299673 -0.707393289
      -0.0894928128 -0.937264681 -0.0432205126 -0.614709616 0.0225149393
      -0.461646348 -0.196682841 -0.626698732 -0.232750207 -0.780033827
      -0.174041495 -0.566315353 -0.111017525 -0.451524019</_>
    <_>
      0. 0. 0.323615491 -0.124382988 0.516590655 -0.436517775
      0.540560126 -0.740481675 0.544473767 -0.98932606 0.352651745
      -0.760089695 0.331387997 -0.995770156 0.28691861 -0.713821471
      0.274350345 -0.541177094 0.15598686 -0.753357768 0.116553381 -1.
      0.110630654 -0.641626298 0.137085959 -0.481177658 -0.0246066842
      -0.703119516 -0.0859735534 -0.934903979 -0.0397274047 -0.610926867
      0.0251159873 -0.456537068 -0.195823774 -0.623385847 -0.227602705
      -0.778381705 -0.169690236 -0.562902808 -0.10844522 -0.447087735</_>
    <_>
      0. 0. 0.321870118 -0.119030662 0.515629053 -0.432898253
      0.540276945 -0.73525852 0.5495556 -0.984661818 0.354955643
      -0.762745619 0.330551922 -0.993137598 0.28432256 -0.714591622
      0.271524489 -0.538288236 0.156177416 -0.756611884 0.116231926 -1.
      0.107762523 -0.647503734 0.13387242 -0.481453508 -0.0245535262
      -0.706669807 -0.087086454 -0.931420028 -0.0428867079 -0.610434353
      0.0244025532 -0.453479528 -0.194624245 -0.626347065 -0.229200661
      -0.778187692 -0.172751993 -0.563935637 -0.109054588 -0.446931571</_>
    <_>
      0. 0. 0.322918147 -0.120932534 0.51634568 -0.434265763 0.541463912
      -0.73622936 0.555445492 -0.984807789 0.355480343 -0.761714339
      0.333099961 -0.992461383 0.285423011 -0.714182794 0.272115171
      -0.537854493 0.155934498 -0.75621438 0.118133187 -1. 0.106647804
      -0.647837877 0.132535577 -0.480921239 -0.0255189314 -0.707644761
      -0.086692974 -0.934321463 -0.0463102832 -0.61464864 0.0202304088
      -0.455283582 -0.195399225 -0.629231513 -0.230790168 -0.783044755
      -0.177275538 -0.569189668 -0.114237502 -0.449734747</_>
    <_>
      0. 0. 0.321098298 -0.127453238 0.514348745 -0.435765505
      0.541716933 -0.735005975 0.548345804 -0.982404053 0.353921622
      -0.762733102 0.337811172 -0.988784134 0.290545195 -0.712960005
      0.271998227 -0.539995849 0.158386692 -0.756477475 0.126696765 -1.
      0.114064172 -0.649573624 0.134950832 -0.484849215 -0.0207452551
      -0.705567122 -0.0779537335 -0.937032104 -0.0366317853 -0.620095491
      0.026272947 -0.46041283 -0.189230204 -0.623220861 -0.219181404
      -0.771244287 -0.161245644 -0.561252892 -0.0982690752 -0.445446163</_>
    <_>
      0. 0. 0.322131008 -0.123170778 0.517145693 -0.434041828
      0.544606507 -0.734223068 0.550071537 -0.981595218 0.356235653
      -0.758304596 0.339551449 -0.989316583 0.291642904 -0.714095175
      0.272116929 -0.540797234 0.15957205 -0.753754795 0.126559675 -1.
      0.114743635 -0.650757194 0.134671494 -0.483679205 -0.0210965741
      -0.705492318 -0.0775472224 -0.934687674 -0.0356201939 -0.616637349
      0.0253949333 -0.456733108 -0.192174643 -0.626265883 -0.22074911
      -0.774109781 -0.163127303 -0.561536014 -0.102033213 -0.444560856</_>
    <_>
      0. 0. 0.318494231 -0.121556967 0.511090875 -0.431373984
      0.537681878 -0.729605317 0.54669255 -0.970632136 0.350360751
      -0.754311085 0.334513187 -0.990928352 0.288110286 -0.712780952
      0.269873559 -0.531939983 0.152017355 -0.752577126 0.123233683 -1.
      0.11470136 -0.650788188 0.129744634 -0.480657279 -0.029678544
      -0.702584267 -0.0841165259 -0.931019425 -0.0397502594 -0.613524437
      0.0157668553 -0.453885496 -0.204293132 -0.61760509 -0.23124823
      -0.764747918 -0.170165032 -0.55285418 -0.112127393 -0.436550885</_>
    <_>
      0. 0. 0.318614334 -0.123073176 0.510847926 -0.430622697
      0.537616074 -0.728698015 0.543306828 -0.971624851 0.350102574
      -0.753867626 0.334933817 -0.990694046 0.287993252 -0.713301182
      0.269505441 -0.533317089 0.153858796 -0.750995994 0.125344276 -1.
      0.115963295 -0.649975896 0.131290466 -0.482056171 -0.0262688901
      -0.700483441 -0.0797347426 -0.931773126 -0.0362405777 -0.614938736
      0.0188672394 -0.456668615 -0.198527366 -0.616118014 -0.225021571
      -0.761249304 -0.164382637 -0.550462008 -0.106705613 -0.436208844</_>
    <_>
      0. 0. 0.313196182 -0.124393776 0.502182841 -0.427557677
      0.529756606 -0.72142446 0.545755982 -0.960241497 0.348803222
      -0.753255844 0.333225459 -0.992276073 0.283384562 -0.728783846
      0.264293939 -0.547459543 0.151695102 -0.749963343 0.122286081 -1.
      0.112404637 -0.665770948 0.128072798 -0.498090088 -0.0274108499
      -0.700378716 -0.0872858614 -0.928453565 -0.0415985882 -0.620801032
      0.0157689918 -0.462649435 -0.200138867 -0.615294039 -0.232467473
      -0.766431808 -0.170670018 -0.563136518 -0.110290453 -0.448037922</_>
    <_>
      0. 0. 0.312657505 -0.130035058 0.504321992 -0.431007773
      0.534448802 -0.723435879 0.548775494 -0.963059664 0.356007636
      -0.763223231 0.337048411 -0.991333127 0.283238798 -0.730104923
      0.265353441 -0.541349947 0.155198991 -0.759721398 0.123351917 -1.
      0.110755779 -0.665327311 0.127558455 -0.49291715 -0.0272824578
      -0.710672557 -0.0909998938 -0.92908746 -0.0457845815 -0.622572601
      0.0153036136 -0.461284161 -0.202611476 -0.627423227 -0.242805526
      -0.772242606 -0.176702544 -0.571165681 -0.109084994 -0.455922395</_>
    <_>
      0. 0. -0.319980383 -0.0899855271 -0.549727321 -0.426505744
      -0.56863457 -0.737258375 -0.515756488 -1. -0.401203752
      -0.692849815 -0.326245099 -0.887445688 -0.245562956 -0.618828952
      -0.193028629 -0.38845399 -0.183899179 -0.737542987 -0.135690704
      -0.927348256 -0.0889628157 -0.600411415 -0.067411311 -0.343470365
      -0.00789661705 -0.72612828 0.0207264256 -0.916912436 0.0364314169
      -0.592369795 0.0384101532 -0.346008956 0.156365156 -0.682365716
      0.140211746 -0.807365179 0.142237768 -0.617905676 0.139933661
      -0.469311833</_>
    <_>
      0. 0. 0.313531846 -0.124173708 0.506706119 -0.427067697
      0.537698984 -0.723650515 0.554556072 -0.964486241 0.354967803
      -0.759159923 0.340454012 -0.99451375 0.28719607 -0.724219143
      0.268164605 -0.540320575 0.156885281 -0.755212843 0.128318965 -1.
      0.115885779 -0.657149911 0.131386265 -0.493266672 -0.0240912363
      -0.705094516 -0.0838488713 -0.927067459 -0.0397969596 -0.612102151
      0.0182742272 -0.45751822 -0.199024662 -0.621506453 -0.232654691
      -0.768716574 -0.170129225 -0.56199944 -0.107907653 -0.449883074</_>
    <_>
      0. 0. 0.313934326 -0.120591089 0.511158705 -0.427495241
      0.543855548 -0.724773228 0.55616647 -0.964919448 0.358063638
      -0.757365823 0.340723783 -0.991961062 0.288900584 -0.726105809
      0.270942628 -0.545169771 0.160422504 -0.754058361 0.128449708 -1.
      0.11765451 -0.662975967 0.134755045 -0.498825341 -0.0210896526
      -0.705512345 -0.0851522014 -0.926189065 -0.0394340605 -0.613705516
      0.0219257828 -0.459365994 -0.195930302 -0.6241678 -0.233359218
      -0.771251559 -0.169304267 -0.564105034 -0.103343397 -0.451239914</_>
    <_>
      0. 0. 0.313074321 -0.115138121 0.508460879 -0.427574009
      0.537123442 -0.729753733 0.550425708 -0.970305562 0.354333431
      -0.754821002 0.331852973 -0.996977925 0.282017648 -0.721924365
      0.268087119 -0.544183612 0.153972596 -0.753536224 0.114799917 -1.
      0.104998156 -0.655608535 0.126234233 -0.494314969 -0.0287029017
      -0.70646745 -0.0952519551 -0.92765528 -0.0504760221 -0.613071203
      0.0122691132 -0.461593688 -0.203544617 -0.625491679 -0.243130818
      -0.772831798 -0.183509946 -0.562007725 -0.11952021 -0.448411644</_>
    <_>
      0. 0. -0.307993203 -0.126465321 -0.519614279 -0.464335322
      -0.539918005 -0.768021166 -0.513957143 -1. -0.325126767
      -0.733701289 -0.3523615 -0.918378413 -0.291862041 -0.648400724
      -0.233252004 -0.416382641 -0.102052875 -0.748487234 -0.117617756
      -0.922522902 -0.0753086358 -0.579195976 -0.0497102626 -0.328105718
      0.112218611 -0.72302556 0.100945048 -0.898079693 0.0961798579
      -0.56617564 0.0780995637 -0.326755404 0.327980876 -0.660016775
      0.305732995 -0.853908658 0.274703145 -0.653457642 0.242414191
      -0.478898704</_>
    <_>
      0. 0. 0.318059504 -0.119851053 0.517032385 -0.431195855
      0.549327374 -0.733727157 0.551757097 -0.977671683 0.358051509
      -0.754470885 0.338210166 -0.996202648 0.288948029 -0.722328722
      0.272723526 -0.54711169 0.157601938 -0.752259672 0.122619815 -1.
      0.111042164 -0.656233788 0.129832402 -0.494113564 -0.0273493361
      -0.704544187 -0.0875357687 -0.932328343 -0.0462230109 -0.617644429
      0.0121422717 -0.463303655 -0.205476254 -0.623066425 -0.236103177
      -0.772224188 -0.177475646 -0.561257064 -0.117421277 -0.446696877</_>
    <_>
      0. 0. 0.319412023 -0.121987775 0.520663321 -0.432013154
      0.552820981 -0.734965682 0.555418909 -0.979281127 0.359220326
      -0.757914901 0.337127417 -0.994324744 0.288120091 -0.716400743
      0.27318716 -0.54147625 0.156500399 -0.755012989 0.119363964 -1.
      0.1095175 -0.649125516 0.129909128 -0.489167571 -0.0278912038
      -0.706592083 -0.0909663588 -0.932797313 -0.0475115441 -0.615056455
      0.0134740919 -0.463600606 -0.204113469 -0.625053406 -0.238712683
      -0.772640705 -0.17933993 -0.560736179 -0.117056079 -0.448326647</_>
    <_>
      0. 0. 0.322261035 -0.132808745 0.524120271 -0.439022034
      0.556479514 -0.73895514 0.552987576 -0.987112403 0.358129948
      -0.762545824 0.336247504 -0.987899244 0.288793564 -0.714974821
      0.272435725 -0.543318689 0.155812085 -0.758103907 0.119389042 -1.
      0.109641604 -0.650672495 0.130278617 -0.486222744 -0.0280852541
      -0.708734691 -0.0902121961 -0.930986106 -0.0473964587 -0.616615653
      0.0141583635 -0.463829666 -0.200904995 -0.626188278 -0.236778304
      -0.769520104 -0.178317279 -0.561694443 -0.116224162 -0.45044136</_>
    <_>
      0. 0. 0.326399475 -0.126823351 0.525149584 -0.436597109
      0.552158177 -0.735945761 0.561640739 -0.983605385 0.363821477
      -0.765191972 0.332847804 -0.989660144 0.286261618 -0.719693303
      0.274885744 -0.553786933 0.161815286 -0.759420633 0.119766757 -1.
      0.111350559 -0.65014869 0.135196686 -0.490852892 -0.0226363502
      -0.709194422 -0.0883972943 -0.924599946 -0.046852462 -0.60584718
      0.015782861 -0.45785901 -0.196728736 -0.625298858 -0.234791651
      -0.773668945 -0.180030644 -0.562458515 -0.119061157 -0.451863319</_>
    <_>
      0. 0. 0.327780545 -0.13084802 0.519736111 -0.444158703 0.541460693
      -0.7474792 0.549755216 -0.994713128 0.354409903 -0.770366251
      0.323012471 -0.997564018 0.281509459 -0.718763709 0.271279871
      -0.551139772 0.149364874 -0.762178004 0.108692504 -1. 0.105206966
      -0.641106129 0.129174903 -0.48478061 -0.0361263976 -0.708953679
      -0.101061217 -0.928075612 -0.0555206835 -0.604271054 0.00492328359
      -0.458376586 -0.208216295 -0.621573389 -0.247477636 -0.775991201
      -0.190222785 -0.561703861 -0.131888241 -0.451181233</_>
    <_>
      0. 0. 0.329572946 -0.134152368 0.526060522 -0.443597674
      0.550624847 -0.745713413 0.555897653 -0.995122254 0.363681167
      -0.774228573 0.331304073 -0.997175992 0.287847042 -0.720385671
      0.278830618 -0.555708826 0.157137915 -0.765647113 0.115124725 -1.
      0.108116135 -0.640170872 0.134555578 -0.485649645 -0.030360803
      -0.711783826 -0.0949611366 -0.931520224 -0.0515504628 -0.607835472
      0.0129209002 -0.460438669 -0.205133364 -0.623326361 -0.24363628
      -0.77588594 -0.186488509 -0.563409328 -0.123684809 -0.452952147</_>
    <_>
      0. 0. 0.326040506 -0.133715913 0.525349319 -0.440726876
      0.553243935 -0.742154777 0.552588046 -0.99155885 0.362578928
      -0.773843288 0.331395626 -0.998659432 0.288947612 -0.721769154
      0.278969735 -0.55721885 0.155756742 -0.764217615 0.115626939 -1.
      0.110211775 -0.638955474 0.135288224 -0.487139672 -0.0328814425
      -0.709664941 -0.0972257555 -0.930993557 -0.0512993075 -0.606737077
      0.0128832161 -0.459639698 -0.208637148 -0.620886385 -0.249063805
      -0.770451665 -0.188114554 -0.558790147 -0.123659872 -0.45080632</_>
    <_>
      0. 0. 0.32835871 -0.132386997 0.527436376 -0.441106141 0.554703295
      -0.743551254 0.561178863 -0.993044555 0.366710782 -0.773695588
      0.335063517 -0.995094776 0.290896684 -0.718435824 0.279482663
      -0.554615855 0.160188481 -0.766204178 0.119484589 -1. 0.111539513
      -0.640899003 0.135790348 -0.488336802 -0.0275954194 -0.713995159
      -0.0912980437 -0.930981517 -0.0484164916 -0.607728601 0.0150572537
      -0.462273806 -0.202504486 -0.627865374 -0.241313428 -0.779733598
      -0.185461894 -0.567378998 -0.124140024 -0.457790405</_>
    <_>
      0. 0. 0.32784155 -0.13716504 0.525075018 -0.439974248 0.553321242
      -0.738951087 0.558474243 -0.986779034 0.36141941 -0.770932317
      0.333984703 -0.993072987 0.29150179 -0.720621288 0.277308434
      -0.556035578 0.156199932 -0.762610734 0.119559184 -1. 0.113777094
      -0.644595385 0.135817349 -0.48993665 -0.0307966955 -0.708974481
      -0.091941312 -0.929225504 -0.0468452275 -0.61005348 0.0144737149
      -0.46335113 -0.205493599 -0.619733632 -0.241779283 -0.77384305
      -0.183954135 -0.565294743 -0.124503009 -0.455927521</_>
    <_>
      0. 0. 0.327396303 -0.137139231 0.521435022 -0.449570835
      0.547111094 -0.752306998 0.563649714 -0.998361111 0.364029169
      -0.771331251 0.333898634 -0.996688247 0.290365934 -0.723271489
      0.279205322 -0.55998069 0.15590997 -0.763351858 0.115460739 -1.
      0.108625598 -0.645576715 0.134513885 -0.491836905 -0.0327816904
      -0.710393548 -0.0956704021 -0.932463169 -0.0507915057 -0.613542914
      0.0145636965 -0.464946508 -0.207964733 -0.622354865 -0.244743541
      -0.77896148 -0.186984569 -0.569083214 -0.123963065 -0.457163095</_>
    <_>
      0. 0. 0.323806584 -0.134788617 0.518298984 -0.442417979
      0.546422184 -0.741114616 0.566854417 -0.985227823 0.360917985
      -0.771975994 0.331809789 -0.994805515 0.290563613 -0.721942961
      0.278288662 -0.558217406 0.153833598 -0.76456058 0.11858134 -1.
      0.114005141 -0.645798266 0.136819229 -0.494420707 -0.0339426696
      -0.710226655 -0.0983818695 -0.927809238 -0.0505757965 -0.608906269
      0.0139376242 -0.462832361 -0.209370583 -0.618983805 -0.247557968
      -0.768011928 -0.184659407 -0.562431097 -0.118897401 -0.457618982</_>
    <_>
      0. 0. 0.320949346 -0.131880358 0.514769554 -0.451455325
      0.542479217 -0.754022837 0.569512725 -0.998916924 0.35796389
      -0.776626945 0.33194083 -1. 0.293377191 -0.730799735 0.280627847
      -0.56695044 0.150212854 -0.767146766 0.113228105 -0.999553561
      0.112095065 -0.652659297 0.136964321 -0.50125879 -0.0371472016
      -0.711699843 -0.0998999104 -0.928641498 -0.0491958372 -0.614834309
      0.0160669405 -0.467733026 -0.212145209 -0.620182633 -0.24579367
      -0.776816308 -0.185001284 -0.572551608 -0.121931851 -0.464357048</_>
    <_>
      0. 0. 0.327572376 -0.124565445 0.514744878 -0.446660221
      0.534570932 -0.750449181 0.569544971 -0.993151367 0.354305327
      -0.777717054 0.324570477 -0.996375263 0.282966733 -0.722646534
      0.270919532 -0.552421451 0.147356108 -0.769364178 0.108195886 -1.
      0.109492429 -0.647794545 0.135021359 -0.489900738 -0.0407494195
      -0.713382602 -0.104891039 -0.923441529 -0.0509277694 -0.602758706
      0.0153457914 -0.45369038 -0.216791049 -0.622450173 -0.251441836
      -0.77091974 -0.183876872 -0.562212527 -0.116537035 -0.455257177</_>
    <_>
      0. 0. 0.323779941 -0.125086918 0.512375891 -0.442199886 0.5363065
      -0.742292106 0.570939898 -0.983069241 0.352332264 -0.773414969
      0.32243979 -0.995448768 0.276773661 -0.727533877 0.262567908
      -0.555004597 0.145481497 -0.764713764 0.106682755 -1. 0.10501463
      -0.655263066 0.129286811 -0.494431317 -0.0414463356 -0.708212078
      -0.107733272 -0.916509688 -0.0556623451 -0.600594163 0.0107562486
      -0.450163215 -0.21583645 -0.61563158 -0.253278434 -0.76420033
      -0.186690614 -0.558769763 -0.118218213 -0.450961679</_>
    <_>
      0. 0. 0.316188455 -0.103650205 0.512003124 -0.428370535
      0.545962811 -0.733686328 0.565975308 -0.976028144 0.345301569
      -0.773850501 0.343729734 -0.997578382 0.302085847 -0.723867238
      0.280464172 -0.528633237 0.144432068 -0.765063167 0.109604791 -1.
      0.11144264 -0.657072723 0.135670736 -0.491390616 -0.0416012593
      -0.711885333 -0.10367465 -0.929572403 -0.0533763953 -0.611510336
      0.0085198367 -0.451553762 -0.221626863 -0.623236895 -0.254808009
      -0.783234537 -0.19333902 -0.571744919 -0.131808296 -0.450196058</_>
    <_>
      0. 0. 0.321211725 -0.109828644 0.515216827 -0.431714416
      0.545893908 -0.736746669 0.56155473 -0.979644716 0.343503475
      -0.78393954 0.340519488 -0.998991907 0.298336029 -0.725390434
      0.276920885 -0.531635165 0.144046187 -0.773042083 0.107965618 -1.
      0.11224927 -0.654896438 0.138556838 -0.491809666 -0.0412529744
      -0.715904713 -0.10566552 -0.927714169 -0.051957041 -0.607077718
      0.0134110926 -0.448052198 -0.220299721 -0.624093294 -0.253022075
      -0.78095746 -0.186957642 -0.569787085 -0.121043622 -0.450749785</_>
    <_>
      0. 0. 0.322590739 -0.102373645 0.517635107 -0.427416235
      0.543526947 -0.734372675 0.552358389 -0.979298651 0.343616277
      -0.790117323 0.333473742 -1. 0.291136265 -0.730193317 0.271543235
      -0.536758065 0.142046019 -0.778419971 0.102801591 -0.999932408
      0.108320579 -0.653973818 0.135645896 -0.493821651 -0.0449253246
      -0.720192194 -0.111151241 -0.935209095 -0.0557016507 -0.612870574
      0.0116354367 -0.449774921 -0.226769388 -0.625987291 -0.259458959
      -0.781599581 -0.19137162 -0.569727063 -0.122566715 -0.449739546</_>
    <_>
      0. 0. 0.31479761 -0.102882616 0.507517755 -0.428079754 0.536164105
      -0.735011935 0.554438055 -0.977507472 0.332006335 -0.779108524
      0.321787596 -0.989940345 0.286872 -0.71316272 0.272416651
      -0.517445207 0.132405847 -0.769620836 0.0960150957 -1. 0.107040867
      -0.648504078 0.132268488 -0.485899389 -0.0491435342 -0.715178549
      -0.11557173 -0.930201411 -0.0557513274 -0.604054093 0.00968417991
      -0.447095215 -0.22669287 -0.625879288 -0.26494348 -0.78586787
      -0.195971832 -0.575057268 -0.129305616 -0.461817116</_>
    <_>
      0. 0. 0.307793111 -0.106995054 0.504563987 -0.428385258
      0.538487613 -0.731353104 0.551290452 -0.971137941 0.336118519
      -0.769997954 0.323032379 -0.98860836 0.287472069 -0.713671923
      0.276348859 -0.515607595 0.136771858 -0.764044821 0.0944579095 -1.
      0.103207365 -0.657182992 0.129676417 -0.486369938 -0.0429307669
      -0.712956309 -0.113795809 -0.929658055 -0.0590095893 -0.610623121
      0.00170622475 -0.45053184 -0.217516333 -0.625435293 -0.261279404
      -0.792555749 -0.198243186 -0.584212005 -0.135622442 -0.465284884</_>
    <_>
      0. 0. 0.307040513 -0.107730597 0.503691614 -0.431804359
      0.535766184 -0.736140966 0.545933485 -0.97637409 0.335278362
      -0.772328198 0.323901117 -0.98664403 0.286698997 -0.711792409
      0.27248317 -0.513778985 0.136910483 -0.767308593 0.0980866104 -1.
      0.104848504 -0.657055736 0.127909869 -0.487456053 -0.0422678702
      -0.717961609 -0.107572086 -0.934910655 -0.0550257824 -0.615403712
      0.00199962221 -0.454366356 -0.217564508 -0.633011937 -0.256693184
      -0.799866557 -0.195467621 -0.590798438 -0.136165708 -0.470741808</_>
    <_>
      0. 0. 0.305453867 -0.103535131 0.503191233 -0.426850647
      0.537241518 -0.73181814 0.548036039 -0.971721828 0.335414261
      -0.766055346 0.324491531 -0.986951888 0.286180943 -0.710217893
      0.272903174 -0.511613965 0.138530076 -0.761931419 0.100146964 -1.
      0.104102671 -0.656168878 0.126929119 -0.485568166 -0.0399206653
      -0.714015067 -0.104530558 -0.933369517 -0.0539123043 -0.613703489
      0.00266536861 -0.452240407 -0.214401424 -0.631019294 -0.254244894
      -0.798723042 -0.194498837 -0.588538468 -0.135498211 -0.467698157</_>
    <_>
      0. 0. 0.304846287 -0.0990868062 0.505301297 -0.421487212
      0.539257348 -0.724872053 0.551239073 -0.966258645 0.340159386
      -0.767572403 0.324454397 -0.985902429 0.280682236 -0.712235153
      0.265835553 -0.504395962 0.141063958 -0.764759421 0.100205667 -1.
      0.0983243585 -0.659755945 0.119860239 -0.484190375 -0.0380754955
      -0.717495561 -0.106960349 -0.924631298 -0.0574823357 -0.607735693
      0.00287540862 -0.445282817 -0.212935075 -0.63463378 -0.260097504
      -0.79719305 -0.20064126 -0.591713369 -0.136705935 -0.472751677</_>
    <_>
      0. 0. 0.309785545 -0.0959393531 0.503884494 -0.419820547
      0.531297445 -0.723235071 0.54624778 -0.962029278 0.334766209
      -0.771589637 0.320376486 -0.98816669 0.281755835 -0.713100612
      0.267594159 -0.512320399 0.134547323 -0.764080048 0.091565907 -1.
      0.0973824114 -0.654545546 0.123118885 -0.484747738 -0.0475852899
      -0.71214354 -0.121445358 -0.926981091 -0.0633045882 -0.603857577
      0.00408491585 -0.441980243 -0.224309817 -0.625725329 -0.271991789
      -0.785797477 -0.20462437 -0.57666409 -0.133459941 -0.461752087</_>
    <_>
      0. 0. 0.311257243 -0.100346468 0.505271971 -0.422029972
      0.532296896 -0.724630952 0.547253072 -0.963967323 0.33382079
      -0.774321616 0.317996562 -0.988156617 0.280781418 -0.713619471
      0.269270957 -0.512684703 0.132828802 -0.766793787 0.0897802114 -1.
      0.0969023108 -0.65493387 0.124179825 -0.483889401 -0.0498469137
      -0.714075208 -0.122706205 -0.925237775 -0.064367421 -0.603244364
      0.00351957791 -0.442032963 -0.226798236 -0.625737011 -0.272897333
      -0.785698235 -0.205179363 -0.57724762 -0.134180248 -0.462328762</_>
    <_>
      0. 0. 0.312228173 -0.0994408131 0.508218527 -0.420313299
      0.536153734 -0.724584818 0.548100531 -0.965231419 0.336358309
      -0.771054447 0.321792513 -0.989309609 0.284886718 -0.709342062
      0.272642225 -0.509771645 0.135992691 -0.764050663 0.0940305218 -1.
      0.101206005 -0.646980643 0.126887679 -0.479272991 -0.0459768474
      -0.713218987 -0.119039357 -0.929054022 -0.0613816455 -0.602201581
      0.00465273019 -0.444493651 -0.223125711 -0.628654301 -0.270039856
      -0.790863931 -0.204178676 -0.579625845 -0.1357622 -0.465947002</_>
    <_>
      0. 0. 0.315526366 -0.0974365473 0.515519381 -0.413559467
      0.547732413 -0.719424188 0.551948428 -0.96481055 0.344055891
      -0.770977676 0.336202353 -0.994653165 0.297281861 -0.721093178
      0.284208894 -0.521154404 0.147448391 -0.762883484 0.108841442 -1.
      0.11003907 -0.656183302 0.134798035 -0.491851807 -0.0344609171
      -0.712530255 -0.103972606 -0.931765795 -0.0503510274 -0.611728668
      0.0148538928 -0.452614993 -0.215092137 -0.628085434 -0.259278625
      -0.790136158 -0.193727404 -0.580899239 -0.124683239 -0.463740855</_>
    <_>
      0. 0. 0.320239216 -0.0934681222 0.521019936 -0.420605272
      0.549770057 -0.730773568 0.557847977 -0.978587866 0.347343653
      -0.775205314 0.340803206 -0.99477303 0.299122632 -0.717220724
      0.282916307 -0.515897512 0.144690171 -0.767110109 0.108098157 -1.
      0.112482391 -0.647675574 0.137416333 -0.478318334 -0.0428760946
      -0.715551138 -0.107064389 -0.935890675 -0.0535446033 -0.60810405
      0.0100715682 -0.44219476 -0.226725876 -0.629987776 -0.262007266
      -0.788366854 -0.196531117 -0.572252989 -0.13028498 -0.451521248</_>
    <_>
      0. 0. 0.312642992 -0.0951324552 0.506628931 -0.424118936
      0.533225656 -0.732222497 0.547467709 -0.97157371 0.341166764
      -0.774491608 0.328788221 -0.992994189 0.287079245 -0.719360709
      0.274514109 -0.514602065 0.139365166 -0.766878366 0.0995716229 -1.
      0.101721719 -0.657586694 0.12816292 -0.481429905 -0.0463288352
      -0.713029206 -0.119216584 -0.927813947 -0.063764222 -0.607482016
      0.00522415433 -0.43985641 -0.228213891 -0.622857988 -0.275736213
      -0.785102606 -0.209006205 -0.576824069 -0.135261476 -0.45704487</_>
    <_>
      0. 0. 0.311237723 -0.0921376422 0.51085037 -0.419326961
      0.540253937 -0.728026927 0.546468616 -0.97100842 0.346477628
      -0.774330497 0.327524781 -0.99259007 0.282046735 -0.715081036
      0.272398591 -0.509739161 0.141342297 -0.768237352 0.0976763517 -1.
      0.0949470103 -0.654251218 0.123708501 -0.485884041 -0.0460330881
      -0.715813935 -0.12117222 -0.924334764 -0.0691485181 -0.600829422
      0.00151397765 -0.441051632 -0.228408456 -0.628353775 -0.278355628
      -0.779691041 -0.212170541 -0.568580389 -0.135841027 -0.456256926</_>
    <_>
      0. 0. 0.310654312 -0.0934647471 0.513524532 -0.420375943
      0.545945168 -0.727314413 0.551850557 -0.96692878 0.347626895
      -0.77205056 0.329212427 -0.991129875 0.283712953 -0.716795504
      0.274399787 -0.50823009 0.140855789 -0.767601669 0.100139447 -1.
      0.0975934342 -0.66085428 0.126681864 -0.488035649 -0.0481402762
      -0.716442585 -0.120363884 -0.924432933 -0.0672071502 -0.604233384
      0.00479730265 -0.439307392 -0.232692257 -0.629905343 -0.278857172
      -0.779574811 -0.209436744 -0.568772554 -0.130008057 -0.452478468</_>
    <_>
      0. 0. 0.313484937 -0.0921431705 0.517289996 -0.417036474
      0.551422894 -0.726327419 0.557389081 -0.970388114 0.352298588
      -0.771605194 0.333723247 -0.993507087 0.286627859 -0.716969907
      0.275267273 -0.508657396 0.146469146 -0.766765594 0.106381387 -1.
      0.101208605 -0.657376647 0.127561092 -0.487406075 -0.042918589
      -0.715393186 -0.114238255 -0.923718214 -0.0631327108 -0.601258039
      0.00618061563 -0.440193594 -0.228039891 -0.629966676 -0.272449404
      -0.775066197 -0.203115195 -0.561904132 -0.12551713 -0.448472798</_>
    <_>
      0. 0. 0.313893229 -0.0927550122 0.517882347 -0.420855075
      0.549795628 -0.730245411 0.559611499 -0.970612049 0.352394193
      -0.77265507 0.337761611 -0.990462959 0.28841272 -0.713508368
      0.27713719 -0.508686543 0.147609711 -0.767567337 0.109658509 -1.
      0.101595588 -0.656956494 0.128301159 -0.486246377 -0.0409067646
      -0.715067685 -0.109626606 -0.924187362 -0.0613267422 -0.59970969
      0.0086785024 -0.436206073 -0.225037172 -0.627378583 -0.269001395
      -0.775077522 -0.205277368 -0.561644495 -0.129836246 -0.447493643</_>
    <_>
      0. 0. 0.316117316 -0.0969898254 0.518068671 -0.424871564
      0.55107981 -0.733575284 0.559448898 -0.976812243 0.346344918
      -0.77644527 0.330613464 -0.989566088 0.290244609 -0.714393079
      0.277594209 -0.51361537 0.144098759 -0.770462096 0.100481786 -1.
      0.105070062 -0.653529584 0.132344499 -0.482448369 -0.04173344
      -0.718553603 -0.113781899 -0.930466652 -0.0587314963 -0.606578231
      0.00876526348 -0.443719149 -0.222735241 -0.631385922 -0.266017437
      -0.787845731 -0.200361401 -0.576905012 -0.129695028 -0.461254537</_>
    <_>
      0. 0. 0.315412462 -0.0967048928 0.519040763 -0.421576411
      0.551252186 -0.730439961 0.557123184 -0.974882483 0.342269272
      -0.769976616 0.329724967 -0.98882103 0.290775329 -0.708599567
      0.27830258 -0.507013142 0.141927168 -0.763888061 0.0993252546 -1.
      0.104158886 -0.646989763 0.130026236 -0.479085535 -0.0417597294
      -0.713638783 -0.111852281 -0.927383423 -0.0565783046 -0.598823965
      0.00910098478 -0.441035271 -0.221422687 -0.629808903 -0.263040304
      -0.787808895 -0.198470637 -0.574656725 -0.130403802 -0.461822569</_>
    <_>
      0. 0. 0.312293738 -0.0929099843 0.51636976 -0.418005228
      0.549018145 -0.727447808 0.556583464 -0.969556451 0.349395603
      -0.765592575 0.332350194 -0.988486767 0.288688749 -0.711823523
      0.277000159 -0.506670058 0.14668496 -0.762321174 0.102560282 -1.
      0.103221819 -0.651993692 0.130138874 -0.480354846 -0.0378227346
      -0.713899851 -0.110718124 -0.924390137 -0.0560964867 -0.602148235
      0.0130993081 -0.442470253 -0.216267645 -0.631092012 -0.262037128
      -0.787957072 -0.197737232 -0.578720212 -0.126314014 -0.464503258</_>
    <_>
      0. 0. 0.312200397 -0.0943120793 0.518125176 -0.419096023
      0.551556528 -0.727572143 0.554733098 -0.970774591 0.346160799
      -0.765338182 0.327722102 -0.987353444 0.281165332 -0.705825984
      0.270215571 -0.493351787 0.142737806 -0.761197031 0.0990788788 -1.
      0.0949425474 -0.651676536 0.12105184 -0.477620721 -0.0423871353
      -0.713233054 -0.112622015 -0.923562825 -0.0641159713 -0.600057125
      0.00201707403 -0.440275043 -0.222337097 -0.631443918 -0.268395871
      -0.793087006 -0.207776666 -0.583063006 -0.138598338 -0.467487007</_>
    <_>
      0. 0. 0.307817549 -0.0990212336 0.517716408 -0.419951499
      0.559190214 -0.724461198 0.566629052 -0.965916753 0.348994821
      -0.770209789 0.329703301 -0.987406373 0.280339032 -0.714118242
      0.266402841 -0.504630566 0.144412935 -0.766811013 0.10011968 -1.
      0.0935989097 -0.660306633 0.117921315 -0.482311159 -0.0390062146
      -0.718416274 -0.106985413 -0.925243139 -0.0623674318 -0.609899044
      -0.000416089868 -0.446130216 -0.217833444 -0.633095503
      -0.261113375 -0.799901187 -0.205404252 -0.595220745 -0.140405238
      -0.473104388</_>
    <_>
      0. 0. 0.309462965 -0.107596271 0.515970647 -0.429798245
      0.558159292 -0.734361827 0.564664423 -0.973534226 0.343846947
      -0.762827098 0.324777126 -0.990393281 0.286021203 -0.712494373
      0.273880273 -0.513940811 0.141875371 -0.75602144 0.0978937671 -1.
      0.101821333 -0.653687298 0.123661548 -0.484334856 -0.0385460444
      -0.705694616 -0.10799659 -0.926993668 -0.0524461567 -0.609552801
      0.00691289408 -0.453999341 -0.213773817 -0.620606363 -0.255062342
      -0.788753211 -0.192170188 -0.582748175 -0.130034864 -0.466952413</_>
    <_>
      0. 0. -0.327624559 -0.121103212 -0.55523932 -0.464806139
      -0.57587117 -0.766452849 -0.52995348 -1. -0.348904371 -0.675059021
      -0.346121162 -0.904171646 -0.303037763 -0.633963883 -0.256291896
      -0.392484367 -0.132511467 -0.685316861 -0.136315107 -0.897563994
      -0.113820791 -0.571922421 -0.0967660621 -0.3196702 0.0563270822
      -0.661324739 0.0493446253 -0.863437176 0.0317376442 -0.540586531
      0.00932396855 -0.305468559 0.237774923 -0.607682049 0.201835752
      -0.78999126 0.171887368 -0.587978542 0.144334823 -0.419175953</_>
    <_>
      0. 0. -0.322208494 -0.124221072 -0.544311523 -0.46905607
      -0.560324311 -0.771111608 -0.517504036 -1. -0.349637389
      -0.681831658 -0.342988998 -0.903251529 -0.296479464 -0.638771236
      -0.250017196 -0.403882712 -0.134886175 -0.692603409 -0.130770847
      -0.894341886 -0.106962577 -0.574085414 -0.0926052704 -0.325649798
      0.0556428395 -0.667518258 0.0595025755 -0.856480718 0.0425545014
      -0.540552139 0.014842893 -0.311587274 0.240288302 -0.612686336
      0.219999328 -0.789772272 0.189923257 -0.593126535 0.155873507
      -0.430680096</_>
    <_>
      0. 0. 0.307393879 -0.122016728 0.536427021 -0.425765187
      0.649020731 -0.709544897 0.758823693 -0.914638937 0.38692683
      -0.760323882 0.397796869 -0.988145232 0.34351331 -0.731758952
      0.318009228 -0.542533398 0.176668495 -0.77067107 0.157167912 -1.
      0.141439006 -0.658534467 0.157066077 -0.478808254 -0.0142700784
      -0.726578474 -0.0662212223 -0.93473959 -0.0230579246 -0.622187197
      0.032649681 -0.456026763 -0.198145643 -0.637784362 -0.228536651
      -0.795984328 -0.166934818 -0.59778136 -0.10102696 -0.47953999</_>
    <_>
      0. 0. 0.308632016 -0.122439869 0.5399791 -0.425750405 0.654496193
      -0.70870924 0.761777937 -0.914285779 0.385009229 -0.759983718
      0.404035479 -0.986346483 0.350842088 -0.730555356 0.322574854
      -0.545988858 0.177047357 -0.770035803 0.160085917 -1. 0.146953806
      -0.659520924 0.163979724 -0.482368499 -0.0156405587 -0.725977659
      -0.0632066727 -0.943923354 -0.0197603609 -0.630662918 0.0358429551
      -0.459668607 -0.201762363 -0.637242794 -0.227515325 -0.793671548
      -0.16424413 -0.593223751 -0.0978277847 -0.472904086</_>
    <_>
      0. 0. 0.303836554 -0.125980139 0.5276528 -0.430954307 0.629655719
      -0.713250279 0.7388255 -0.922326267 0.379876256 -0.770686746
      0.379144698 -0.992946327 0.321130455 -0.73880583 0.297883183
      -0.541848123 0.166703373 -0.775133491 0.134675741 -1. 0.119709611
      -0.664567947 0.140819982 -0.482063711 -0.0237296876 -0.725213885
      -0.088452749 -0.920698702 -0.0421970114 -0.614200056 0.0218902826
      -0.449732751 -0.206366524 -0.631128848 -0.24580422 -0.797631145
      -0.187128529 -0.604840219 -0.117754593 -0.484766394</_>
    <_>
      0. 0. 0.301454514 -0.114309609 0.525102913 -0.42369169 0.619152725
      -0.710971415 0.722911179 -0.926207602 0.366658211 -0.778057158
      0.359182656 -0.99300307 0.300489694 -0.729082108 0.279993862
      -0.529341996 0.155035943 -0.778413355 0.114749037 -1. 0.101262964
      -0.657069206 0.127664313 -0.480583996 -0.0333744138 -0.726673603
      -0.106711805 -0.914128244 -0.0611893348 -0.597952545 0.00877381209
      -0.442234188 -0.214050785 -0.633033216 -0.261408508 -0.796408236
      -0.203443408 -0.595178664 -0.128176421 -0.479782671</_>
    <_>
      0. 0. 0.343719751 -0.0012646945 0.638022423 -0.369031191
      0.764233232 -0.742403746 0.864432156 -0.965717316 0.51252538
      -0.72086674 0.540999174 -0.9898929 0.457836002 -0.713883042
      0.438583791 -0.577614903 0.294323534 -0.750130594 0.286687464 -1.
      0.2240244 -0.613692641 0.241581962 -0.526118398 0.0762221664
      -0.746088445 0.0445386507 -0.954424918 0.020458525 -0.58635217
      0.0573667064 -0.481852561 -0.148713663 -0.72197336 -0.169445351
      -0.873610198 -0.164037868 -0.624698937 -0.129745618 -0.540245891</_>
    <_>
      0. 0. -0.258727849 -0.19922483 -0.358445495 -0.528843284
      -0.308894277 -0.79994005 -0.306391597 -1. -0.15310739 -0.757045865
      -0.0661851317 -0.983010352 -0.068690449 -0.771662056 -0.0974689499
      -0.572756171 0.046155788 -0.702335835 0.126005188 -0.889830828
      0.0600013733 -0.607621372 0.00338438223 -0.41972968 0.214494482
      -0.615847766 0.295495838 -0.783137798 0.195388541 -0.523318708
      0.10993693 -0.359844685 0.366574436 -0.494809628 0.422944337
      -0.671158671 0.341771513 -0.516514897 0.269124806 -0.3967776</_>
    <_>
      0. 0. -0.257787108 -0.199603438 -0.357609183 -0.529513538
      -0.307078093 -0.80037272 -0.301569432 -1. -0.14756088 -0.758452237
      -0.0622082837 -0.98190093 -0.0626578629 -0.770327806 -0.087795049
      -0.569441676 0.0524127856 -0.704562187 0.132584959 -0.888431489
      0.0672189593 -0.602779627 0.0103243329 -0.40645352 0.22180441
      -0.618668497 0.305328667 -0.783538759 0.205533043 -0.52080214
      0.117619589 -0.351429701 0.374220371 -0.49752751 0.432036519
      -0.672582746 0.350214183 -0.517381489 0.27442649 -0.394520998</_>
    <_>
      0. 0. -0.256929845 -0.200146854 -0.354373991 -0.527192235
      -0.305151045 -0.797270834 -0.299730897 -1. -0.146518245
      -0.755167961 -0.055675447 -0.974362791 -0.0622076355 -0.760025263
      -0.0944683775 -0.559828103 0.050119523 -0.698555529 0.131400689
      -0.879937172 0.0659305081 -0.599338293 0.0085028708 -0.409575671
      0.216526404 -0.610943317 0.295370877 -0.774294376 0.197125942
      -0.516835153 0.111854345 -0.353903294 0.366084844 -0.489036828
      0.422972232 -0.666439235 0.3452622 -0.512733221 0.273656011
      -0.391725987</_>
    <_>
      0. 0. -0.255674362 -0.200909346 -0.357477754 -0.527217567
      -0.311162233 -0.797778964 -0.305586576 -1. -0.153082386 -0.7556566
      -0.057009358 -0.9746418 -0.057809554 -0.765797138 -0.0868905336
      -0.568039119 0.0445567109 -0.698566258 0.132437035 -0.873068213
      0.0721746162 -0.593983114 0.0167388786 -0.405012608 0.21247232
      -0.61181438 0.298980385 -0.769109786 0.206110373 -0.511895597
      0.121625647 -0.350132614 0.362893999 -0.493146509 0.422750086
      -0.665370345 0.348165303 -0.510603428 0.277003676 -0.391101718</_>
    <_>
      0. 0. -0.260716736 -0.198677346 -0.3619169 -0.524817526
      -0.312377244 -0.797382653 -0.307818651 -1. -0.156752676
      -0.753906369 -0.0642757788 -0.975155413 -0.0599843338 -0.768184781
      -0.0880468041 -0.568932414 0.0397300199 -0.69952935 0.124299921
      -0.872131586 0.0697172135 -0.594798684 0.0137763219 -0.404483944
      0.20841603 -0.615330279 0.291643888 -0.768757164 0.203809813
      -0.511048853 0.118458316 -0.34856984 0.359871894 -0.498699784
      0.418975115 -0.668702543 0.346879214 -0.512140155 0.273824215
      -0.391347796</_>
    <_>
      0. 0. -0.254532695 -0.201802999 -0.359815866 -0.52024281
      -0.317876369 -0.791714549 -0.3041991 -1. -0.144348875 -0.741609812
      -0.058591757 -0.961952209 -0.058495257 -0.752993941 -0.0900504515
      -0.557902157 0.0459843278 -0.687897742 0.129269317 -0.864561141
      0.0708537474 -0.584293962 0.0104236603 -0.393853605 0.211328343
      -0.603649735 0.293173611 -0.759221852 0.203363165 -0.50449127
      0.115476869 -0.347168386 0.359125972 -0.485693276 0.421502531
      -0.651123583 0.344708771 -0.498313189 0.266781896 -0.38465476</_>
    <_>
      0. 0. -0.254395127 -0.202425674 -0.356626302 -0.519999087
      -0.311839461 -0.791359246 -0.297170132 -1. -0.139870733
      -0.741947651 -0.0542450696 -0.959988773 -0.0539402068 -0.752279878
      -0.0857999325 -0.557131827 0.0499251895 -0.687218487 0.132056162
      -0.861827195 0.0727858245 -0.581314325 0.0115538798 -0.388730079
      0.215036869 -0.602317274 0.295751005 -0.756319582 0.205328539
      -0.501419604 0.116778947 -0.342858106 0.362494469 -0.483457237
      0.425205886 -0.650049627 0.347599775 -0.497742862 0.26840505
      -0.383093536</_>
    <_>
      0. 0. -0.244208306 -0.209816292 -0.338121176 -0.527795255
      -0.28801164 -0.793694854 -0.26926592 -1. -0.130314812 -0.73215872
      -0.0367040373 -0.936272025 -0.0371464752 -0.731250167 -0.076328665
      -0.54535228 0.060177777 -0.676674604 0.15073891 -0.846541166
      0.0861551687 -0.570760131 0.0151235014 -0.38520813 0.221839413
      -0.589066982 0.307594925 -0.738588035 0.215029642 -0.487305403
      0.120052412 -0.337027878 0.361984253 -0.467020959 0.434714824
      -0.627277553 0.357893854 -0.483737379 0.273832887 -0.381882936</_>
    <_>
      0. 0. -0.245301038 -0.208042026 -0.339417309 -0.530743062
      -0.284815848 -0.796632707 -0.263479948 -1. -0.133837581
      -0.732796967 -0.0433152653 -0.9327721 -0.0401029959 -0.723329127
      -0.0721889436 -0.539860606 0.0561421253 -0.676944315 0.146416262
      -0.850971222 0.0897384584 -0.573809922 0.0265272111 -0.385320961
      0.21772933 -0.588980317 0.305864662 -0.74689728 0.220193058
      -0.494323909 0.130646482 -0.338047624 0.361084491 -0.468753755
      0.430049002 -0.632103205 0.358538151 -0.488101125 0.279819369
      -0.384573638</_>
    <_>
      0. 0. -0.241799563 -0.208430961 -0.334118545 -0.532683849
      -0.278411567 -0.798121333 -0.25610131 -1. -0.134599701
      -0.729868829 -0.0459856205 -0.927613854 -0.0474234223 -0.713070989
      -0.0794714764 -0.528742671 0.0556536056 -0.675138652 0.143860906
      -0.850608051 0.08529488 -0.57354188 0.0239243079 -0.385324538
      0.217118964 -0.587521672 0.304515541 -0.749788046 0.217845082
      -0.496763885 0.129810065 -0.339685172 0.360996574 -0.469176412
      0.429179549 -0.633241773 0.35726887 -0.489470541 0.278922409
      -0.387409985</_>
    <_>
      0. 0. -0.24495852 -0.208641201 -0.339457303 -0.52886194
      -0.286058873 -0.795932055 -0.262138307 -1. -0.132810637
      -0.717092454 -0.0499729477 -0.927060068 -0.0504207313 -0.719501793
      -0.0848634318 -0.532253027 0.056095168 -0.664832056 0.138602138
      -0.845043242 0.0774003044 -0.572933137 0.011093895 -0.382037222
      0.216382027 -0.581670642 0.298360556 -0.741439223 0.208037674
      -0.489567369 0.115147211 -0.331777334 0.356329501 -0.465837002
      0.425535828 -0.630903959 0.349631786 -0.48473388 0.265497893
      -0.375908583</_>
    <_>
      0. 0. -0.240380436 -0.208132118 -0.333584756 -0.527911246
      -0.286216497 -0.793401241 -0.265450418 -1. -0.129675791
      -0.723718405 -0.0510828644 -0.93291086 -0.0517863557 -0.721168041
      -0.0832611918 -0.52978462 0.0565776862 -0.672113895 0.136348099
      -0.852123618 0.0786152482 -0.577467918 0.0164314006 -0.384769827
      0.217085645 -0.588872194 0.297561079 -0.748556614 0.208079904
      -0.495430946 0.117804915 -0.336785644 0.358435184 -0.472188562
      0.427636713 -0.638115108 0.35192585 -0.492051512 0.269055992
      -0.383610576</_>
    <_>
      0. 0. 0.316567272 -0.124331981 0.503211439 -0.447573394
      0.529408276 -0.752403975 0.530551672 -1. 0.3476668 -0.679854155
      0.358376145 -0.929486394 0.308322877 -0.708048701 0.277453214
      -0.502643824 0.138983995 -0.684524477 0.147798389 -0.924412131
      0.131007463 -0.618646622 0.129661635 -0.384155333 -0.0577733517
      -0.658121169 -0.0570671968 -0.843584538 -0.0349578559 -0.527555346
      -0.0137616387 -0.308065087 -0.257159978 -0.600003958 -0.229342848
      -0.76104641 -0.179744571 -0.54308939 -0.146051288 -0.372049183</_>
    <_>
      0. 0. 0.316857219 -0.122368693 0.506929636 -0.445583016
      0.533444345 -0.751268446 0.523760021 -1. 0.344226807 -0.675994098
      0.359552234 -0.928574979 0.312157094 -0.711694539 0.282584369
      -0.508173764 0.136962071 -0.681809485 0.149133846 -0.927419007
      0.134022638 -0.624173641 0.131620944 -0.386925101 -0.0596234091
      -0.657089055 -0.0575783551 -0.84794122 -0.0318874456 -0.529753625
      -0.0103151696 -0.304865777 -0.260454446 -0.600785851 -0.232215181
      -0.761461198 -0.180416688 -0.541384637 -0.147154942 -0.36702317</_>
    <_>
      0. 0. -0.241807505 -0.212655872 -0.331713885 -0.532404423
      -0.282987803 -0.796378732 -0.265119851 -1. -0.126677394
      -0.732512355 -0.0488659516 -0.937153041 -0.0555193834 -0.723787069
      -0.0910804644 -0.532483816 0.0597132668 -0.678019941 0.137073085
      -0.860062122 0.0740449131 -0.587409079 0.0112880385 -0.397540718
      0.219416112 -0.588707149 0.300212741 -0.749608815 0.20661296
      -0.502052665 0.117027506 -0.345943362 0.360746264 -0.464439481
      0.432983875 -0.628308117 0.355849087 -0.489728123 0.273383111
      -0.386900008</_>
    <_>
      0. 0. 0.317477226 -0.115889698 0.511051774 -0.441087425
      0.540341079 -0.750410676 0.528124928 -1. 0.343552083 -0.674551785
      0.357888967 -0.93025744 0.309156328 -0.709549844 0.281247109
      -0.50006175 0.135831416 -0.680935979 0.148078337 -0.926699042
      0.130971327 -0.621054411 0.128963634 -0.377214193 -0.0620120242
      -0.656206846 -0.058536917 -0.847973824 -0.0334344134 -0.526478171
      -0.0106320363 -0.296416759 -0.263645381 -0.600186706 -0.234605148
      -0.758253098 -0.182942137 -0.533913493 -0.149341881 -0.355865538</_>
    <_>
      0. 0. 0.318736881 -0.120196685 0.514049649 -0.444833428
      0.545835793 -0.753415167 0.538880169 -1. 0.349101335 -0.674412966
      0.364460826 -0.926721334 0.315410674 -0.714562595 0.287675291
      -0.509728193 0.142301157 -0.681811094 0.153754622 -0.923504114
      0.137539953 -0.626664877 0.137114748 -0.387710035 -0.0538602881
      -0.656971872 -0.0506827757 -0.845608294 -0.0265126489 -0.530482948
      -0.00367861264 -0.302901506 -0.252679676 -0.600816846 -0.222790048
      -0.759850442 -0.173711628 -0.541529715 -0.142708465 -0.365854144</_>
    <_>
      0. 0. -0.280804932 -0.143652499 -0.488844335 -0.478382677
      -0.509378552 -0.778639555 -0.452175856 -1. -0.274099648
      -0.701605618 -0.29762283 -0.89105469 -0.266001672 -0.626200676
      -0.227676883 -0.397593349 -0.0583488047 -0.705600142 -0.0752859935
      -0.88039279 -0.0649097785 -0.550322533 -0.0491152667 -0.308742404
      0.142869994 -0.674080849 0.135645032 -0.856080949 0.106809236
      -0.532321393 0.0830202922 -0.299696118 0.341307908 -0.607057512
      0.33633697 -0.796811104 0.294286281 -0.601653814 0.255888224
      -0.433832765</_>
    <_>
      0. 0. -0.264493316 -0.196316302 -0.357916415 -0.530523896
      -0.311252058 -0.800635099 -0.311669767 -1. -0.167991176
      -0.732340395 -0.0559277497 -0.947023869 -0.0712422729 -0.726709664
      -0.112238623 -0.543668926 0.0262521133 -0.67011565 0.127796575
      -0.860198498 0.0453649573 -0.583607197 -0.023964949 -0.417538911
      0.184750825 -0.57654506 0.282672256 -0.736363947 0.17322813
      -0.480641544 0.0792210847 -0.33875972 0.322489679 -0.45666787
      0.391424775 -0.598118663 0.301890343 -0.438987523 0.222706109
      -0.341750264</_>
    <_>
      0. 0. -0.261615396 -0.196514308 -0.351642162 -0.529560626
      -0.304457068 -0.799681008 -0.307295263 -1. -0.162836179
      -0.734880209 -0.0498719923 -0.948115647 -0.0670696795 -0.728971958
      -0.108496211 -0.545461833 0.0312555991 -0.671039164 0.132537231
      -0.856338322 0.0471300706 -0.578360796 -0.0222828202 -0.414293915
      0.189153135 -0.575726032 0.287612855 -0.732300818 0.17575343
      -0.477698714 0.0816598833 -0.339341104 0.326404721 -0.453578562
      0.394718766 -0.592622042 0.303296059 -0.433810234 0.223794043
      -0.338760108</_>
    <_>
      0. 0. -0.256957382 -0.198651239 -0.34463495 -0.530724585
      -0.29973942 -0.798834383 -0.303942353 -1. -0.153457284
      -0.742296815 -0.0422311537 -0.950910628 -0.0628837347 -0.733056366
      -0.106932104 -0.55307126 0.039670229 -0.674597263 0.136692151
      -0.856999457 0.0462824591 -0.576658249 -0.023382321 -0.41934976
      0.195691869 -0.575950682 0.292741954 -0.728353262 0.176323235
      -0.475752741 0.0832536966 -0.345994413 0.3312518 -0.449894398
      0.399980843 -0.585642874 0.30697909 -0.430571586 0.230055302
      -0.343366265</_>
    <_>
      0. 0. -0.257746905 -0.201725632 -0.35180968 -0.530717134
      -0.310721934 -0.797651827 -0.31389302 -1. -0.162890017
      -0.749270141 -0.0533380359 -0.953936577 -0.0667055398 -0.732000709
      -0.106846958 -0.546162248 0.0330373421 -0.689578176 0.132618219
      -0.871332049 0.0496255793 -0.588483989 -0.0187713224 -0.423637331
      0.192582965 -0.595806062 0.291640371 -0.748185873 0.179592341
      -0.492784142 0.0856617093 -0.358164907 0.331899434 -0.470634758
      0.399825454 -0.605960131 0.308632463 -0.449758589 0.230686367
      -0.359134465</_>
    <_>
      0. 0. -0.261101037 -0.202297837 -0.358255535 -0.531476915
      -0.314611346 -0.798248291 -0.31221965 -1. -0.165777743
      -0.752882779 -0.055723533 -0.954787135 -0.0703262612 -0.729228437
      -0.111866415 -0.542899311 0.0313067175 -0.693479359 0.133770213
      -0.873019159 0.0503375269 -0.587465882 -0.0184927192 -0.423093677
      0.191882148 -0.598728895 0.292948753 -0.749634564 0.180843115
      -0.491742462 0.0867848769 -0.357592344 0.33270815 -0.472395539
      0.401043028 -0.606095731 0.308887661 -0.448468506 0.230201259
      -0.35905081</_>
    <_>
      0. 0. 0.326222539 -0.105551988 0.540540576 -0.447934002
      0.572369695 -0.76347369 0.51886797 -1. 0.352117658 -0.711832404
      0.361620218 -0.937993169 0.299081594 -0.701386452 0.269900471
      -0.498674363 0.147495896 -0.710758686 0.139367312 -0.932674348
      0.112441786 -0.624960244 0.116256081 -0.389944792 -0.0527139865
      -0.669988513 -0.0637510791 -0.85299933 -0.0457304418 -0.543475449
      -0.0185824092 -0.324046731 -0.249412224 -0.596147716 -0.241709083
      -0.754368484 -0.195582166 -0.550109088 -0.161169067 -0.389989108</_>
    <_>
      0. 0. -0.257864356 -0.205940753 -0.354401499 -0.53279388
      -0.312723577 -0.798163772 -0.308576643 -1. -0.152105659
      -0.749034166 -0.0531196445 -0.943974912 -0.0749635324 -0.715782881
      -0.114129782 -0.533181429 0.044022847 -0.693302929 0.138789013
      -0.873934567 0.0518804193 -0.590765595 -0.0154420743 -0.424533874
      0.205724597 -0.601034343 0.302439779 -0.75814563 0.186102033
      -0.503495336 0.0915606543 -0.364133894 0.349255711 -0.475909501
      0.420006305 -0.620319128 0.327302575 -0.469915807 0.247612223
      -0.378390104</_>
    <_>
      0. 0. -0.254204869 -0.205837145 -0.351293683 -0.533901572
      -0.310233057 -0.799133062 -0.305719048 -1. -0.148457259
      -0.744161427 -0.050186947 -0.936379433 -0.0733780041 -0.708732307
      -0.112787046 -0.529830098 0.0470190942 -0.689250588 0.141421914
      -0.869428813 0.0545208678 -0.588093042 -0.0115308687 -0.425921828
      0.207977593 -0.59737891 0.304090321 -0.754718065 0.188183218
      -0.501257539 0.0950249359 -0.364304662 0.352238327 -0.473592758
      0.421080261 -0.614105403 0.327481747 -0.463628113 0.248108655
      -0.374906301</_>
    <_>
      0. 0. 0.322648913 -0.0933074206 0.522107482 -0.446978867
      0.531389356 -0.765968204 0.469285786 -1. 0.321428657 -0.725495934
      0.300886124 -0.947708845 0.229982987 -0.697220266 0.202189058
      -0.486262858 0.110006228 -0.709822476 0.0678422973 -0.921467125
      0.043311704 -0.593795657 0.0573310666 -0.359134585 -0.0880927369
      -0.655273438 -0.141559899 -0.827844501 -0.116094269 -0.506441116
      -0.0751251206 -0.287741691 -0.274408728 -0.569267869 -0.314178079
      -0.729723394 -0.267226696 -0.518722892 -0.223759204 -0.36141625</_>
    <_>
      0. 0. 0.312178284 -0.0897878036 0.512624025 -0.449406296
      0.523674965 -0.76769501 0.458556861 -1. 0.301925957 -0.728911519
      0.283853561 -0.950066686 0.220374897 -0.69057256 0.199372262
      -0.469570607 0.0982115492 -0.711183131 0.0600632913 -0.920327067
      0.0422561616 -0.599043965 0.0612528659 -0.360720813 -0.0926541984
      -0.654365599 -0.135841027 -0.822606921 -0.105167471 -0.504060268
      -0.0615278445 -0.286295801 -0.272298932 -0.565979779 -0.301595241
      -0.721979082 -0.251224816 -0.508530915 -0.205730081 -0.350064635</_>
    <_>
      0. 0. 0.318025589 -0.0972109586 0.51560539 -0.452150702
      0.520826757 -0.767236471 0.451035589 -1. 0.295647293 -0.727768779
      0.279687345 -0.940529525 0.221198425 -0.679939926 0.20224829
      -0.459378123 0.0926735923 -0.706993222 0.0526226796 -0.911142886
      0.0347701386 -0.58827275 0.0540512241 -0.350201577 -0.0955023021
      -0.647653937 -0.136833087 -0.816382587 -0.104504958 -0.497616857
      -0.058477778 -0.279865861 -0.271187007 -0.556404889 -0.297755539
      -0.71085453 -0.248342365 -0.498391837 -0.203445867 -0.34074831</_>
    <_>
      0. 0. 0.327844679 -0.100776039 0.523627102 -0.460428268
      0.519093454 -0.769883096 0.449217796 -1. 0.311497748 -0.70972991
      0.277797699 -0.929573178 0.229244068 -0.685119629 0.223645568
      -0.480119228 0.105649993 -0.689154506 0.0619241707 -0.900467694
      0.054128278 -0.583918095 0.0754726529 -0.348440796 -0.0864988789
      -0.631671429 -0.127766982 -0.799778879 -0.0885137767 -0.485752165
      -0.0424306691 -0.271907151 -0.264732838 -0.547105789 -0.291066289
      -0.694386125 -0.234815538 -0.482735008 -0.19006294 -0.328955323</_>
    <_>
      0. 0. 0.325826108 -0.102005631 0.522146821 -0.460530251
      0.521413386 -0.769666195 0.454128474 -1. 0.313723236 -0.711845815
      0.280866712 -0.926753044 0.231234103 -0.683253169 0.222670838
      -0.479829848 0.109357633 -0.691759348 0.0682091862 -0.899374664
      0.0579426512 -0.582641482 0.0761793032 -0.347911924 -0.0819821432
      -0.634683549 -0.120786086 -0.800908804 -0.0848786235 -0.487323463
      -0.0420311838 -0.274281561 -0.260416925 -0.550242305 -0.28490597
      -0.696872592 -0.230560377 -0.48564285 -0.188146576 -0.332013518</_>
    <_>
      0. 0. 0.324564248 -0.0984064788 0.52344662 -0.456225604
      0.522644877 -0.767255604 0.45532468 -1. 0.313627481 -0.712253392
      0.282945216 -0.92742449 0.228113502 -0.684307337 0.216002077
      -0.475263029 0.106015041 -0.691774249 0.0630282685 -0.896068513
      0.0500588715 -0.576828122 0.0694200769 -0.339682758 -0.0868487358
      -0.635125577 -0.12760973 -0.796625674 -0.0920191407 -0.479977101
      -0.0464486033 -0.263553888 -0.265172869 -0.551719606 -0.291031688
      -0.69764477 -0.237511814 -0.484243959 -0.192769825 -0.32795462</_>
    <_>
      0. 0. 0.324150324 -0.101895303 0.516917586 -0.457932502
      0.511741459 -0.767855287 0.443745673 -1. 0.30650875 -0.709127843
      0.275239259 -0.923003256 0.221210375 -0.681521237 0.210416988
      -0.471233666 0.100780234 -0.686147451 0.05571419 -0.889722228
      0.043610055 -0.572345555 0.0641615167 -0.334849983 -0.0901322216
      -0.627189994 -0.132761165 -0.78996855 -0.0960851088 -0.475581586
      -0.0494383276 -0.260090172 -0.267254025 -0.541154504 -0.293376416
      -0.693795145 -0.240150809 -0.484398633 -0.196020231 -0.328979611</_>
    <_>
      0. 0. 0.324894249 -0.09883596 0.516754508 -0.458544791 0.511018395
      -0.768764198 0.449999928 -1. 0.309799492 -0.708326697 0.276322782
      -0.930363953 0.225559175 -0.688625932 0.217205793 -0.479822665
      0.102941476 -0.686948597 0.0616153628 -0.895842373 0.0510436706
      -0.578592777 0.0699677095 -0.342498451 -0.0889787674 -0.629624188
      -0.130025491 -0.795146108 -0.093377009 -0.480592668 -0.0488314964
      -0.265840113 -0.267756462 -0.545507252 -0.294091552 -0.696759701
      -0.239508003 -0.48700273 -0.19542028 -0.332961142</_>
    <_>
      0. 0. 0.32298106 -0.096061781 0.516824961 -0.456281304 0.512190998
      -0.767687857 0.445903063 -1. 0.306397974 -0.707673669 0.276446939
      -0.926497042 0.224787369 -0.683019459 0.215381742 -0.474424064
      0.0999059975 -0.686228573 0.0581119508 -0.895870388 0.0477359779
      -0.57716912 0.0681852177 -0.33994323 -0.0921677053 -0.628821611
      -0.134274796 -0.796509624 -0.0969022438 -0.479272693 -0.0502516963
      -0.262290627 -0.270912468 -0.544364512 -0.299610645 -0.695742965
      -0.244803965 -0.483767539 -0.199075401 -0.328083515</_>
    <_>
      0. 0. 0.325839877 -0.0985275954 0.518194318 -0.456164807
      0.512828648 -0.767026722 0.447806925 -1. 0.309318632 -0.71116209
      0.277461946 -0.929118514 0.224940017 -0.68675071 0.214705259
      -0.474563628 0.102996781 -0.688337028 0.0612462275 -0.892133713
      0.0502767749 -0.575242996 0.069490023 -0.336542934 -0.0887222514
      -0.629382253 -0.128800571 -0.793230653 -0.0926266387 -0.479910523
      -0.048570808 -0.26358375 -0.267471313 -0.543046534 -0.291021645
      -0.696416259 -0.237556875 -0.487216175 -0.195112884 -0.331047893</_>
    <_>
      0. 0. 0.320711225 -0.0919871032 0.514197469 -0.453354806
      0.513857245 -0.766915739 0.453090787 -1. 0.308862537 -0.707644105
      0.277849495 -0.929282963 0.218937278 -0.68405211 0.202034682
      -0.468895674 0.102101542 -0.687538266 0.0594341084 -0.89624685
      0.0454707667 -0.578902602 0.0635781512 -0.342180759 -0.0894895345
      -0.630693018 -0.133005083 -0.796479702 -0.0966133326 -0.480068266
      -0.0505750813 -0.263262063 -0.266512841 -0.546940148 -0.295280218
      -0.697803378 -0.243391022 -0.485428482 -0.19954887 -0.329155713</_>
    <_>
      0. 0. 0.320591211 -0.0904398263 0.515969098 -0.452813148
      0.516826034 -0.766981542 0.456781328 -1. 0.312499762 -0.708531022
      0.284388542 -0.928814113 0.223855153 -0.680850565 0.205567956
      -0.464225739 0.106150158 -0.689617276 0.0656946301 -0.89693892
      0.0492401123 -0.577835858 0.0656214505 -0.340980411 -0.0852986947
      -0.633737326 -0.127508953 -0.798034191 -0.0933514237 -0.478415459
      -0.0488146655 -0.260861427 -0.262400419 -0.550701261 -0.289097726
      -0.699233174 -0.238685489 -0.482811362 -0.19634828 -0.32454899</_>
    <_>
      0. 0. 0.317313552 -0.0927606076 0.512240708 -0.452996761
      0.515073836 -0.765233397 0.45604831 -1. 0.308355868 -0.708626747
      0.276566058 -0.9297719 0.217674568 -0.687127709 0.202130616
      -0.469966471 0.100613691 -0.688180983 0.0586044937 -0.900597095
      0.0452413186 -0.582807124 0.0654177889 -0.340582848 -0.0922152847
      -0.631634712 -0.136024445 -0.795882523 -0.099584043 -0.474618584
      -0.0506292395 -0.252670407 -0.270345032 -0.547901511 -0.298101932
      -0.697901726 -0.246259063 -0.4818528 -0.200904265 -0.321833342</_>
    <_>
      0. 0. 0.317969859 -0.0918188244 0.512822151 -0.451268852
      0.514082849 -0.766000569 0.452794254 -1. 0.306192726 -0.706793904
      0.275222093 -0.927321792 0.216824248 -0.683478415 0.201799169
      -0.469540536 0.102571435 -0.687572122 0.0611426942 -0.899454951
      0.0458454378 -0.582505047 0.0632561222 -0.344714999 -0.0871721804
      -0.63193655 -0.130644187 -0.801246047 -0.096956335 -0.48149395
      -0.0520223379 -0.261101604 -0.264163405 -0.549135327 -0.292792797
      -0.703132808 -0.242881581 -0.489011616 -0.200248495 -0.329948932</_>
    <_>
      0. 0. 0.316740543 -0.0924804062 0.507666349 -0.453939915
      0.506854534 -0.767935216 0.446897328 -1. 0.301893026 -0.701721489
      0.271379948 -0.923353493 0.213902876 -0.680590808 0.198488966
      -0.466222495 0.0992944837 -0.682590902 0.0595529862 -0.895127237
      0.0450009592 -0.581193447 0.0617818013 -0.342871636 -0.0895528123
      -0.627117574 -0.130661577 -0.796480417 -0.0964810029 -0.478031784
      -0.0523438267 -0.257022381 -0.265285522 -0.54456228 -0.290632099
      -0.69681561 -0.240479067 -0.481950313 -0.19889757 -0.321900487</_>
    <_>
      0. 0. 0.314121127 -0.0916366279 0.507353008 -0.454921573
      0.508843243 -0.769229293 0.449439347 -1. 0.303293973 -0.703987718
      0.271091521 -0.926071584 0.21348311 -0.680170953 0.199934095
      -0.465465814 0.0988079458 -0.684715867 0.055601608 -0.89640969
      0.0414376184 -0.580234587 0.0614873208 -0.344841003 -0.0903684348
      -0.629038155 -0.135811225 -0.795961738 -0.100955032 -0.476939231
      -0.0534448698 -0.25989446 -0.264915884 -0.54659313 -0.294627041
      -0.6957618 -0.244203404 -0.48041746 -0.199701414 -0.323666334</_>
    <_>
      0. 0. 0.317233652 -0.0897825733 0.508352578 -0.455209106
      0.506596148 -0.769182742 0.446168631 -1. 0.298434347 -0.707377791
      0.266433477 -0.925244153 0.210451752 -0.676844656 0.197286725
      -0.462023944 0.0941019654 -0.687172294 0.0537100285 -0.89843148
      0.0405951329 -0.58126694 0.0596829206 -0.344071597 -0.0948675498
      -0.629947841 -0.137517631 -0.797805607 -0.102708951 -0.475905031
      -0.05684378 -0.256746382 -0.269115806 -0.545624733 -0.295886993
      -0.691263914 -0.244472951 -0.470765144 -0.201206714 -0.311931163</_>
    <_>
      0. 0. 0.31671232 -0.0947180241 0.511841178 -0.456312537
      0.514082849 -0.768773198 0.449898481 -1. 0.299960107 -0.712980926
      0.268083334 -0.929699659 0.212843657 -0.681377232 0.198862597
      -0.468489408 0.0967314988 -0.692412138 0.0567362867 -0.902128935
      0.0425476134 -0.582721472 0.0593332574 -0.343731016 -0.0932156667
      -0.635648489 -0.133415446 -0.800065935 -0.100683451 -0.477374017
      -0.0571762398 -0.257171094 -0.269839883 -0.552225351 -0.293813318
      -0.698117554 -0.242762834 -0.477629513 -0.200284079 -0.316759109</_>
    <_>
      0. 0. 0.318533808 -0.0912421793 0.515890539 -0.452952653
      0.517569005 -0.76774925 0.454677105 -1. 0.307254732 -0.701598167
      0.273822248 -0.929695904 0.219001591 -0.675029099 0.209530115
      -0.461134046 0.10217604 -0.682495892 0.0596310534 -0.900666356
      0.0440163501 -0.579996288 0.0634301007 -0.34490034 -0.0886157826
      -0.629161417 -0.133016855 -0.803838551 -0.102914222 -0.481120765
      -0.0589453653 -0.266250998 -0.267012596 -0.551123142 -0.293872297
      -0.701092839 -0.246462807 -0.477197289 -0.204578131 -0.318387866</_>
    <_>
      0. 0. 0.316609472 -0.0922448337 0.512842059 -0.455921143
      0.513339281 -0.769172072 0.450092256 -1. 0.30347544 -0.705823898
      0.270696461 -0.932639062 0.216711551 -0.677656949 0.207075477
      -0.462979257 0.0988485441 -0.685302615 0.0558943339 -0.899538636
      0.0411209539 -0.578020692 0.0610577911 -0.341846973 -0.0911909118
      -0.630717754 -0.136007488 -0.802757978 -0.104402214 -0.482075363
      -0.0589787513 -0.267911285 -0.268544704 -0.55090636 -0.29752633
      -0.701955497 -0.24803631 -0.479628652 -0.203396112 -0.320696622</_>
    <_>
      0. 0. 0.317471266 -0.0923807174 0.513588965 -0.454209179
      0.516397417 -0.769587398 0.455407113 -1. 0.305097282 -0.710268021
      0.274737984 -0.933948159 0.220714092 -0.676575899 0.20910278
      -0.462829828 0.102147497 -0.690521121 0.061948549 -0.90226984
      0.0462939367 -0.576241672 0.0641856715 -0.34328109 -0.0865114182
      -0.635672688 -0.127537757 -0.804354906 -0.0966470689 -0.480649412
      -0.0535793304 -0.270252526 -0.264244765 -0.556468129 -0.287638217
      -0.703087866 -0.238941148 -0.477660954 -0.197153434 -0.320853621</_>
    <_>
      0. 0. 0.356510818 -0.111970343 0.572886825 -0.442086965
      0.612556577 -0.762369037 0.660373449 -1. 0.353117168 -0.732814431
      0.364313364 -0.928626359 0.288241923 -0.669300079 0.243391186
      -0.446598202 0.146645129 -0.737155199 0.147558555 -0.921181142
      0.0975495577 -0.587492108 0.0797020793 -0.364222288 -0.0437851362
      -0.693715632 -0.0522726104 -0.84313339 -0.0521607213 -0.519543171
      -0.0431502536 -0.312541842 -0.232896432 -0.612222612 -0.227861688
      -0.784565806 -0.189495638 -0.587164462 -0.163204432 -0.433846146</_>
    <_>
      0. 0. 0.34588939 -0.123282619 0.560582757 -0.454126328 0.612148345
      -0.765579939 0.674402773 -1. 0.343679577 -0.756744504 0.367494404
      -0.938623488 0.296136826 -0.677700341 0.257197201 -0.462296814
      0.136666805 -0.755585074 0.149518356 -0.918533504 0.102799319
      -0.57529366 0.0901322439 -0.355151027 -0.0541840009 -0.704902887
      -0.0571821555 -0.835257649 -0.0515377671 -0.507672727
      -0.0359227099 -0.305254132 -0.244371623 -0.614576697 -0.24108772
      -0.783415854 -0.197433859 -0.593811691 -0.164848149 -0.450956792</_>
    <_>
      0. 0. 0.332286239 -0.0915407538 0.525761306 -0.445200801
      0.522429645 -0.765350223 0.475158691 -1. 0.322528273 -0.701569796
      0.29330954 -0.932087421 0.232159108 -0.694918334 0.213593528
      -0.484173477 0.112443566 -0.69208324 0.072816439 -0.911671996
      0.0557029098 -0.591491342 0.0723990947 -0.353368998 -0.0823917687
      -0.645971179 -0.132353529 -0.82847923 -0.101616479 -0.501735091
      -0.0578731932 -0.275304139 -0.270041913 -0.571335912 -0.299846947
      -0.721121907 -0.25094077 -0.49477908 -0.205780312 -0.32782945</_>
    <_>
      0. 0. 0.330863625 -0.0915155336 0.523449063 -0.444398373
      0.519033372 -0.76497215 0.473485798 -1. 0.320832998 -0.695059419
      0.293758243 -0.923714936 0.234647349 -0.688423872 0.216398597
      -0.477766335 0.114261247 -0.68690908 0.0774565488 -0.903885782
      0.0607698448 -0.5870049 0.0763944462 -0.350409061 -0.0778890848
      -0.642599463 -0.124943666 -0.823361635 -0.0945659578 -0.499648213
      -0.0518576689 -0.273971915 -0.264161199 -0.570468485 -0.292847961
      -0.718777716 -0.244332239 -0.494367868 -0.199735522 -0.327691585</_>
    <_>
      0. 0. 0.330249697 -0.0896964148 0.523290217 -0.443175554
      0.519509375 -0.764793277 0.475686908 -1. 0.324926347 -0.696935773
      0.296395034 -0.927211165 0.233534887 -0.691956043 0.214044854
      -0.48055321 0.115091644 -0.689029157 0.0748748779 -0.907136559
      0.0573523268 -0.58793056 0.0754301399 -0.351203769 -0.0792027786
      -0.643980086 -0.129930004 -0.825525343 -0.0988188684 -0.501414657
      -0.0529866554 -0.277028233 -0.266467631 -0.569913268 -0.297812134
      -0.718698204 -0.249031931 -0.494411081 -0.201994553 -0.329073846</_>
    <_>
      0. 0. 0.331444532 -0.0918925926 0.52369988 -0.444083482
      0.520137548 -0.764359951 0.474250078 -1. 0.321658224 -0.697855592
      0.295221657 -0.92758584 0.234763935 -0.69144088 0.215165496
      -0.480600417 0.11379803 -0.689755738 0.0751518011 -0.908696115
      0.0580124222 -0.589003086 0.0741759464 -0.351256937 -0.0793305039
      -0.644351661 -0.129110575 -0.826882064 -0.0977487043 -0.501751542
      -0.0536042862 -0.276456654 -0.266438901 -0.570010722 -0.295921326
      -0.721555948 -0.247831985 -0.497525036 -0.202982843 -0.331464291</_>
    <_>
      0. 0. 0.341390997 0.000678054348 0.639959872 -0.373231411
      0.761298358 -0.74226886 0.86919713 -0.962691128 0.51979816
      -0.725283265 0.544962704 -0.987756252 0.463026702 -0.709141493
      0.443379074 -0.57321769 0.298629373 -0.758081257 0.285648525 -1.
      0.226803616 -0.612190962 0.244297847 -0.526518762 0.0786819607
      -0.756590962 0.0437314622 -0.954877317 0.0238536242 -0.590567946
      0.0610602982 -0.491806418 -0.150764853 -0.734399199 -0.173591465
      -0.881571889 -0.166962966 -0.633189261 -0.133073315 -0.554146528</_>
    <_>
      0. 0. 0.328527063 -0.0936201438 0.527577043 -0.444267571
      0.531017125 -0.764719725 0.479894966 -1. 0.325013369 -0.707107127
      0.299081385 -0.938189149 0.242150947 -0.702629685 0.224890232
      -0.489977121 0.118160568 -0.697142601 0.0792347938 -0.9168607
      0.0656156763 -0.596162677 0.083653532 -0.357598752 -0.0755719543
      -0.649973989 -0.124382079 -0.83005023 -0.0928068161 -0.507235527
      -0.0494677201 -0.285118878 -0.264369011 -0.573052287 -0.294340491
      -0.72864902 -0.246497005 -0.505868256 -0.202869922 -0.339367419</_>
    <_>
      0. 0. 0.329104245 -0.0967094228 0.525211096 -0.447605073
      0.526384711 -0.766273439 0.47734198 -1. 0.324479699 -0.706710935
      0.29910323 -0.934090734 0.241796449 -0.69798696 0.222624823
      -0.485623449 0.118096426 -0.696178436 0.0800557062 -0.911996663
      0.066143468 -0.591710806 0.0826671347 -0.353855044 -0.0745809227
      -0.648167253 -0.12152347 -0.825030267 -0.090650551 -0.504436672
      -0.0498210378 -0.283913344 -0.26150763 -0.570969701 -0.289665222
      -0.724862397 -0.242129475 -0.503887355 -0.200465381 -0.338632286</_>
    <_>
      0. 0. -0.284624726 -0.146794915 -0.493108481 -0.482744962
      -0.508164048 -0.782759666 -0.449030429 -1. -0.273832828
      -0.702369392 -0.29063502 -0.890585899 -0.261294514 -0.621757865
      -0.225787118 -0.391516179 -0.0570685007 -0.705184758 -0.0676423684
      -0.879100442 -0.0573261529 -0.548793674 -0.0429383442 -0.304384381
      0.143781349 -0.673577666 0.14029263 -0.853660583 0.113117374
      -0.529466212 0.0893315673 -0.293802828 0.342004985 -0.609326363
      0.335934281 -0.798594892 0.295010507 -0.603321731 0.257010043
      -0.433841914</_>
    <_>
      0. 0. 0.331201434 -0.0939103365 0.527686656 -0.446451098
      0.528613985 -0.76645714 0.477814406 -1. 0.324445754 -0.707053483
      0.296068966 -0.93347919 0.238994434 -0.695251703 0.221793532
      -0.483238101 0.11813169 -0.697183013 0.0802955404 -0.912906349
      0.0663398504 -0.591704488 0.0828487426 -0.352848142 -0.0750064626
      -0.649604023 -0.121110544 -0.828024268 -0.0908728912 -0.504761457
      -0.0504281074 -0.282098562 -0.262579292 -0.57244432 -0.289138764
      -0.724409938 -0.242283016 -0.499101281 -0.20169422 -0.33113265</_>
    <_>
      0. 0. 0.328848362 -0.0929477066 0.527313471 -0.444774032
      0.531060457 -0.764972329 0.482496142 -1. 0.325815082 -0.710422695
      0.301184207 -0.938990235 0.24186185 -0.701189339 0.22225745
      -0.487686574 0.117980465 -0.700501263 0.08024887 -0.915922761
      0.0650051385 -0.594436646 0.0815649703 -0.358442754 -0.0756497234
      -0.652824223 -0.124558993 -0.829147041 -0.0938808471 -0.505445123
      -0.0509172231 -0.283777714 -0.263004512 -0.576123536 -0.294748515
      -0.728779614 -0.247038707 -0.505200207 -0.202978596 -0.338867545</_>
    <_>
      0. 0. 0.3298814 -0.0927168578 0.522545755 -0.44764474 0.520778775
      -0.76717037 0.472334653 -1. 0.319982678 -0.705520332 0.290886194
      -0.931213498 0.232123345 -0.688384771 0.214246318 -0.476520211
      0.111129113 -0.695580006 0.0705654696 -0.907434821 0.0560784787
      -0.582973361 0.0729749054 -0.346792489 -0.0824171156 -0.647371769
      -0.1329889 -0.82123518 -0.100608766 -0.495903671 -0.05682889
      -0.275398612 -0.268148929 -0.570310116 -0.298630059 -0.717375636
      -0.250850499 -0.49108845 -0.208004311 -0.325810581</_>
    <_>
      0. 0. 0.333053023 -0.104195751 0.522694468 -0.45202589 0.520101905
      -0.769362628 0.469688535 -1. 0.314853936 -0.708006203 0.290298492
      -0.930329978 0.239699095 -0.686656594 0.223992079 -0.478148103
      0.111606568 -0.696232378 0.0743183494 -0.909283519 0.064237915
      -0.586436331 0.080792509 -0.352844328 -0.0785405114 -0.645102739
      -0.124810331 -0.819921434 -0.091062218 -0.50031352 -0.0506808124
      -0.286527604 -0.263630062 -0.563084066 -0.288364708 -0.717763662
      -0.239368364 -0.498597741 -0.199657768 -0.338335156</_>
    <_>
      0. 0. 0.328847826 -0.0995380208 0.519248843 -0.451685548
      0.517155409 -0.770982265 0.467045575 -1. 0.313426942 -0.70703584
      0.287695259 -0.928529322 0.232448161 -0.681450605 0.215143502
      -0.470261216 0.109684467 -0.695834458 0.0719301254 -0.906654358
      0.0590836704 -0.583833098 0.0746837631 -0.349774837 -0.0807614848
      -0.64459759 -0.127143413 -0.814682603 -0.0951764137 -0.493250698
      -0.0558555275 -0.280177295 -0.264291078 -0.5628016 -0.290888876
      -0.716352522 -0.243487477 -0.494956762 -0.205253616 -0.334373564</_>
    <_>
      0. 0. -0.285972238 -0.146124095 -0.493944049 -0.480137795
      -0.510147095 -0.780244946 -0.449511915 -1. -0.2773588 -0.703751087
      -0.297252953 -0.892812669 -0.268609375 -0.627389967 -0.233254567
      -0.399165601 -0.0623802096 -0.705202043 -0.0768297985 -0.878597856
      -0.0663449988 -0.550268292 -0.0510768928 -0.307470232 0.137356341
      -0.673277795 0.13025637 -0.85360086 0.103507549 -0.532293737
      0.0813793093 -0.298161864 0.334505916 -0.607722104 0.327597082
      -0.801438987 0.286971897 -0.608820736 0.249955595 -0.43937403</_>
    <_>
      0. 0. 0.329329699 -0.100181073 0.520412028 -0.450986207
      0.519781291 -0.770689726 0.466924071 -1. 0.314079285 -0.706394255
      0.289387524 -0.928923666 0.239218861 -0.682791114 0.224519446
      -0.472700685 0.111736283 -0.69492346 0.0754448846 -0.905427039
      0.0662270337 -0.583286643 0.0831960738 -0.350833237 -0.0771256313
      -0.643713057 -0.122403525 -0.815658331 -0.0872114897 -0.494832993
      -0.0466155075 -0.281062335 -0.259702832 -0.562182665 -0.284666896
      -0.714336634 -0.234524414 -0.492370427 -0.194442898 -0.330709934</_>
    <_>
      0. 0. -0.279831618 -0.151903093 -0.482612491 -0.484643251
      -0.50083375 -0.78159374 -0.439766228 -1. -0.27402544 -0.706578255
      -0.298781216 -0.889374316 -0.267768055 -0.626217365 -0.230795145
      -0.397968411 -0.0591623336 -0.706120312 -0.0770110339 -0.874714553
      -0.0669182315 -0.547689795 -0.0525449738 -0.304249942 0.141277313
      -0.672870576 0.131958067 -0.849653423 0.103708126 -0.530641258
      0.0805352181 -0.297621697 0.338528007 -0.606075466 0.331584036
      -0.800328135 0.290044904 -0.611304045 0.252422482 -0.443688363</_>
    <_>
      0. 0. -0.283188432 -0.144904763 -0.485087991 -0.482309669
      -0.501462042 -0.780802727 -0.448875368 -1. -0.276820093
      -0.703073919 -0.289477795 -0.885396183 -0.257951498 -0.617097199
      -0.226392657 -0.391901046 -0.0609173998 -0.705402374 -0.0728480667
